digraph Tree {
node [shape=box, style="filled, rounded", color="black", fontname=helvetica] ;
edge [fontname=helvetica] ;
0 [label="pendiente <= 0.629\nmse = 0.026\nsamples = 62471\nvalue = 0.026", fillcolor="#fefcfa"] ;
1 [label="pendiente <= 0.181\nmse = 0.007\nsamples = 44304\nvalue = 0.007", fillcolor="#fffefe"] ;
0 -> 1 [labeldistance=2.5, labelangle=45, headlabel="True"] ;
2 [label="pendiente <= -0.778\nmse = 0.004\nsamples = 33036\nvalue = 0.004", fillcolor="#fffefe"] ;
1 -> 2 ;
3 [label="curvatura <= 0.882\nmse = 0.002\nsamples = 13999\nvalue = 0.002", fillcolor="#ffffff"] ;
2 -> 3 ;
4 [label="pendiente <= -1.398\nmse = 0.001\nsamples = 12353\nvalue = 0.001", fillcolor="#ffffff"] ;
3 -> 4 ;
5 [label="aspecto <= -1.417\nmse = 0.0\nsamples = 6219\nvalue = 0.0", fillcolor="#ffffff"] ;
4 -> 5 ;
6 [label="aspecto <= -1.417\nmse = 0.001\nsamples = 427\nvalue = 0.001", fillcolor="#ffffff"] ;
5 -> 6 ;
7 [label="mse = 0.0\nsamples = 426\nvalue = 0.0", fillcolor="#ffffff"] ;
6 -> 7 ;
8 [label="mse = 0.0\nsamples = 1\nvalue = 1.0", fillcolor="#e58139"] ;
6 -> 8 ;
9 [label="mse = 0.0\nsamples = 5792\nvalue = 0.0", fillcolor="#ffffff"] ;
5 -> 9 ;
10 [label="pendiente <= -1.398\nmse = 0.002\nsamples = 6134\nvalue = 0.002", fillcolor="#ffffff"] ;
4 -> 10 ;
11 [label="mse = 0.0\nsamples = 1\nvalue = 1.0", fillcolor="#e58139"] ;
10 -> 11 ;
12 [label="pendiente <= -1.282\nmse = 0.002\nsamples = 6133\nvalue = 0.002", fillcolor="#ffffff"] ;
10 -> 12 ;
13 [label="pendiente <= -1.282\nmse = 0.004\nsamples = 1021\nvalue = 0.004", fillcolor="#fffffe"] ;
12 -> 13 ;
14 [label="aspecto <= 1.247\nmse = 0.002\nsamples = 1020\nvalue = 0.002", fillcolor="#ffffff"] ;
13 -> 14 ;
15 [label="pendiente <= -1.379\nmse = 0.001\nsamples = 893\nvalue = 0.001", fillcolor="#ffffff"] ;
14 -> 15 ;
16 [label="pendiente <= -1.379\nmse = 0.004\nsamples = 143\nvalue = 0.004", fillcolor="#fffefe"] ;
15 -> 16 ;
17 [label="mse = 0.0\nsamples = 142\nvalue = 0.0", fillcolor="#ffffff"] ;
16 -> 17 ;
18 [label="mse = 0.0\nsamples = 1\nvalue = 1.0", fillcolor="#e58139"] ;
16 -> 18 ;
19 [label="aspecto <= -1.254\nmse = 0.001\nsamples = 750\nvalue = 0.001", fillcolor="#ffffff"] ;
15 -> 19 ;
20 [label="aspecto <= -1.255\nmse = 0.005\nsamples = 135\nvalue = 0.005", fillcolor="#fffefe"] ;
19 -> 20 ;
21 [label="mse = 0.0\nsamples = 134\nvalue = 0.0", fillcolor="#ffffff"] ;
20 -> 21 ;
22 [label="mse = 0.0\nsamples = 1\nvalue = 1.0", fillcolor="#e58139"] ;
20 -> 22 ;
23 [label="mse = 0.0\nsamples = 615\nvalue = 0.0", fillcolor="#ffffff"] ;
19 -> 23 ;
24 [label="aspecto <= 1.247\nmse = 0.01\nsamples = 127\nvalue = 0.01", fillcolor="#fffefd"] ;
14 -> 24 ;
25 [label="mse = 0.0\nsamples = 1\nvalue = 1.0", fillcolor="#e58139"] ;
24 -> 25 ;
26 [label="mse = 0.0\nsamples = 126\nvalue = 0.0", fillcolor="#ffffff"] ;
24 -> 26 ;
27 [label="mse = 0.0\nsamples = 1\nvalue = 1.0", fillcolor="#e58139"] ;
13 -> 27 ;
28 [label="aspecto <= 0.838\nmse = 0.001\nsamples = 5112\nvalue = 0.001", fillcolor="#ffffff"] ;
12 -> 28 ;
29 [label="pendiente <= -0.79\nmse = 0.001\nsamples = 3351\nvalue = 0.001", fillcolor="#ffffff"] ;
28 -> 29 ;
30 [label="pendiente <= -0.886\nmse = 0.0\nsamples = 3257\nvalue = 0.0", fillcolor="#ffffff"] ;
29 -> 30 ;
31 [label="mse = 0.0\nsamples = 2541\nvalue = 0.0", fillcolor="#ffffff"] ;
30 -> 31 ;
32 [label="pendiente <= -0.886\nmse = 0.002\nsamples = 716\nvalue = 0.002", fillcolor="#ffffff"] ;
30 -> 32 ;
33 [label="mse = 0.0\nsamples = 1\nvalue = 1.0", fillcolor="#e58139"] ;
32 -> 33 ;
34 [label="flujo_acum <= -0.08\nmse = 0.001\nsamples = 715\nvalue = 0.001", fillcolor="#ffffff"] ;
32 -> 34 ;
35 [label="mse = 0.0\nsamples = 591\nvalue = 0.0", fillcolor="#ffffff"] ;
34 -> 35 ;
36 [label="flujo_acum <= -0.08\nmse = 0.005\nsamples = 124\nvalue = 0.005", fillcolor="#fffefe"] ;
34 -> 36 ;
37 [label="aspecto <= -1.273\nmse = 0.139\nsamples = 5\nvalue = 0.167", fillcolor="#fbeade"] ;
36 -> 37 ;
38 [label="mse = 0.0\nsamples = 1\nvalue = 1.0", fillcolor="#e58139"] ;
37 -> 38 ;
39 [label="mse = 0.0\nsamples = 4\nvalue = 0.0", fillcolor="#ffffff"] ;
37 -> 39 ;
40 [label="mse = 0.0\nsamples = 119\nvalue = 0.0", fillcolor="#ffffff"] ;
36 -> 40 ;
41 [label="pendiente <= -0.79\nmse = 0.007\nsamples = 94\nvalue = 0.007", fillcolor="#fffefe"] ;
29 -> 41 ;
42 [label="mse = 0.0\nsamples = 1\nvalue = 1.0", fillcolor="#e58139"] ;
41 -> 42 ;
43 [label="mse = 0.0\nsamples = 93\nvalue = 0.0", fillcolor="#ffffff"] ;
41 -> 43 ;
44 [label="aspecto <= 0.838\nmse = 0.002\nsamples = 1761\nvalue = 0.002", fillcolor="#ffffff"] ;
28 -> 44 ;
45 [label="mse = 0.0\nsamples = 1\nvalue = 1.0", fillcolor="#e58139"] ;
44 -> 45 ;
46 [label="curvatura <= 0.453\nmse = 0.001\nsamples = 1760\nvalue = 0.001", fillcolor="#ffffff"] ;
44 -> 46 ;
47 [label="aspecto <= 0.873\nmse = 0.0\nsamples = 1455\nvalue = 0.0", fillcolor="#ffffff"] ;
46 -> 47 ;
48 [label="aspecto <= 0.872\nmse = 0.008\nsamples = 81\nvalue = 0.008", fillcolor="#fffefd"] ;
47 -> 48 ;
49 [label="mse = 0.0\nsamples = 80\nvalue = 0.0", fillcolor="#ffffff"] ;
48 -> 49 ;
50 [label="mse = 0.0\nsamples = 1\nvalue = 1.0", fillcolor="#e58139"] ;
48 -> 50 ;
51 [label="mse = 0.0\nsamples = 1374\nvalue = 0.0", fillcolor="#ffffff"] ;
47 -> 51 ;
52 [label="curvatura <= 0.455\nmse = 0.004\nsamples = 305\nvalue = 0.004", fillcolor="#fffefe"] ;
46 -> 52 ;
53 [label="mse = 0.0\nsamples = 1\nvalue = 1.0", fillcolor="#e58139"] ;
52 -> 53 ;
54 [label="mse = 0.0\nsamples = 304\nvalue = 0.0", fillcolor="#ffffff"] ;
52 -> 54 ;
55 [label="curvatura <= 0.883\nmse = 0.008\nsamples = 1646\nvalue = 0.008", fillcolor="#fffefd"] ;
3 -> 55 ;
56 [label="mse = 0.0\nsamples = 1\nvalue = 1.0", fillcolor="#e58139"] ;
55 -> 56 ;
57 [label="pendiente <= -2.15\nmse = 0.007\nsamples = 1645\nvalue = 0.007", fillcolor="#fffefe"] ;
55 -> 57 ;
58 [label="pendiente <= -2.158\nmse = 0.041\nsamples = 61\nvalue = 0.043", fillcolor="#fefaf6"] ;
57 -> 58 ;
59 [label="mse = 0.0\nsamples = 58\nvalue = 0.0", fillcolor="#ffffff"] ;
58 -> 59 ;
60 [label="curvatura <= 1.561\nmse = 0.16\nsamples = 3\nvalue = 0.8", fillcolor="#ea9a61"] ;
58 -> 60 ;
61 [label="mse = 0.0\nsamples = 2\nvalue = 1.0", fillcolor="#e58139"] ;
60 -> 61 ;
62 [label="mse = 0.0\nsamples = 1\nvalue = 0.0", fillcolor="#ffffff"] ;
60 -> 62 ;
63 [label="aspecto <= 1.031\nmse = 0.005\nsamples = 1584\nvalue = 0.006", fillcolor="#fffefe"] ;
57 -> 63 ;
64 [label="pendiente <= -1.125\nmse = 0.003\nsamples = 1287\nvalue = 0.003", fillcolor="#fffffe"] ;
63 -> 64 ;
65 [label="mse = 0.0\nsamples = 722\nvalue = 0.0", fillcolor="#ffffff"] ;
64 -> 65 ;
66 [label="pendiente <= -1.124\nmse = 0.008\nsamples = 565\nvalue = 0.008", fillcolor="#fffefd"] ;
64 -> 66 ;
67 [label="mse = 0.0\nsamples = 1\nvalue = 1.0", fillcolor="#e58139"] ;
66 -> 67 ;
68 [label="pendiente <= -0.948\nmse = 0.003\nsamples = 564\nvalue = 0.003", fillcolor="#fffffe"] ;
66 -> 68 ;
69 [label="pendiente <= -0.949\nmse = 0.008\nsamples = 257\nvalue = 0.008", fillcolor="#fffefd"] ;
68 -> 69 ;
70 [label="curvatura <= 1.008\nmse = 0.003\nsamples = 256\nvalue = 0.003", fillcolor="#fffffe"] ;
69 -> 70 ;
71 [label="curvatura <= 1.004\nmse = 0.015\nsamples = 46\nvalue = 0.015", fillcolor="#fffdfc"] ;
70 -> 71 ;
72 [label="mse = 0.0\nsamples = 45\nvalue = 0.0", fillcolor="#ffffff"] ;
71 -> 72 ;
73 [label="mse = 0.0\nsamples = 1\nvalue = 1.0", fillcolor="#e58139"] ;
71 -> 73 ;
74 [label="mse = 0.0\nsamples = 210\nvalue = 0.0", fillcolor="#ffffff"] ;
70 -> 74 ;
75 [label="mse = 0.0\nsamples = 1\nvalue = 1.0", fillcolor="#e58139"] ;
69 -> 75 ;
76 [label="mse = 0.0\nsamples = 307\nvalue = 0.0", fillcolor="#ffffff"] ;
68 -> 76 ;
77 [label="aspecto <= 1.033\nmse = 0.015\nsamples = 297\nvalue = 0.015", fillcolor="#fffdfc"] ;
63 -> 77 ;
78 [label="mse = 0.0\nsamples = 1\nvalue = 1.0", fillcolor="#e58139"] ;
77 -> 78 ;
79 [label="pendiente <= -2.033\nmse = 0.011\nsamples = 296\nvalue = 0.011", fillcolor="#fffefd"] ;
77 -> 79 ;
80 [label="aspecto <= 1.32\nmse = 0.16\nsamples = 3\nvalue = 0.2", fillcolor="#fae6d7"] ;
79 -> 80 ;
81 [label="mse = 0.0\nsamples = 2\nvalue = 0.0", fillcolor="#ffffff"] ;
80 -> 81 ;
82 [label="mse = 0.0\nsamples = 1\nvalue = 1.0", fillcolor="#e58139"] ;
80 -> 82 ;
83 [label="pendiente <= -1.094\nmse = 0.009\nsamples = 293\nvalue = 0.009", fillcolor="#fffefd"] ;
79 -> 83 ;
84 [label="mse = 0.0\nsamples = 177\nvalue = 0.0", fillcolor="#ffffff"] ;
83 -> 84 ;
85 [label="pendiente <= -1.09\nmse = 0.023\nsamples = 116\nvalue = 0.023", fillcolor="#fefcfa"] ;
83 -> 85 ;
86 [label="mse = 0.0\nsamples = 1\nvalue = 1.0", fillcolor="#e58139"] ;
85 -> 86 ;
87 [label="pendiente <= -1.045\nmse = 0.017\nsamples = 115\nvalue = 0.018", fillcolor="#fffdfc"] ;
85 -> 87 ;
88 [label="pendiente <= -1.045\nmse = 0.128\nsamples = 16\nvalue = 0.15", fillcolor="#fbece1"] ;
87 -> 88 ;
89 [label="curvatura <= 0.912\nmse = 0.052\nsamples = 15\nvalue = 0.056", fillcolor="#fef8f4"] ;
88 -> 89 ;
90 [label="mse = 0.0\nsamples = 1\nvalue = 1.0", fillcolor="#e58139"] ;
89 -> 90 ;
91 [label="mse = 0.0\nsamples = 14\nvalue = 0.0", fillcolor="#ffffff"] ;
89 -> 91 ;
92 [label="mse = 0.0\nsamples = 1\nvalue = 1.0", fillcolor="#e58139"] ;
88 -> 92 ;
93 [label="mse = 0.0\nsamples = 99\nvalue = 0.0", fillcolor="#ffffff"] ;
87 -> 93 ;
94 [label="pendiente <= -0.778\nmse = 0.006\nsamples = 19037\nvalue = 0.006", fillcolor="#fffefe"] ;
2 -> 94 ;
95 [label="mse = 0.0\nsamples = 1\nvalue = 1.0", fillcolor="#e58139"] ;
94 -> 95 ;
96 [label="aspecto <= -0.647\nmse = 0.006\nsamples = 19036\nvalue = 0.006", fillcolor="#fffefe"] ;
94 -> 96 ;
97 [label="curvatura <= -4.171\nmse = 0.003\nsamples = 7197\nvalue = 0.003", fillcolor="#fffffe"] ;
96 -> 97 ;
98 [label="curvatura <= -4.258\nmse = 0.139\nsamples = 8\nvalue = 0.167", fillcolor="#fbeade"] ;
97 -> 98 ;
99 [label="mse = 0.0\nsamples = 7\nvalue = 0.0", fillcolor="#ffffff"] ;
98 -> 99 ;
100 [label="mse = 0.0\nsamples = 1\nvalue = 1.0", fillcolor="#e58139"] ;
98 -> 100 ;
101 [label="curvatura <= 1.657\nmse = 0.003\nsamples = 7189\nvalue = 0.003", fillcolor="#fffffe"] ;
97 -> 101 ;
102 [label="aspecto <= -1.34\nmse = 0.002\nsamples = 6897\nvalue = 0.002", fillcolor="#ffffff"] ;
101 -> 102 ;
103 [label="aspecto <= -1.341\nmse = 0.004\nsamples = 2007\nvalue = 0.004", fillcolor="#fffefe"] ;
102 -> 103 ;
104 [label="aspecto <= -1.357\nmse = 0.004\nsamples = 2006\nvalue = 0.004", fillcolor="#fffefe"] ;
103 -> 104 ;
105 [label="curvatura <= -0.29\nmse = 0.002\nsamples = 1856\nvalue = 0.002", fillcolor="#ffffff"] ;
104 -> 105 ;
106 [label="curvatura <= -0.292\nmse = 0.005\nsamples = 562\nvalue = 0.005", fillcolor="#fffefe"] ;
105 -> 106 ;
107 [label="curvatura <= -0.562\nmse = 0.004\nsamples = 561\nvalue = 0.004", fillcolor="#fffefe"] ;
106 -> 107 ;
108 [label="curvatura <= -2.08\nmse = 0.002\nsamples = 379\nvalue = 0.002", fillcolor="#ffffff"] ;
107 -> 108 ;
109 [label="curvatura <= -2.09\nmse = 0.009\nsamples = 62\nvalue = 0.009", fillcolor="#fffefd"] ;
108 -> 109 ;
110 [label="mse = 0.0\nsamples = 61\nvalue = 0.0", fillcolor="#ffffff"] ;
109 -> 110 ;
111 [label="mse = 0.0\nsamples = 1\nvalue = 1.0", fillcolor="#e58139"] ;
109 -> 111 ;
112 [label="mse = 0.0\nsamples = 317\nvalue = 0.0", fillcolor="#ffffff"] ;
108 -> 112 ;
113 [label="curvatura <= -0.56\nmse = 0.01\nsamples = 182\nvalue = 0.01", fillcolor="#fffefd"] ;
107 -> 113 ;
114 [label="mse = 0.0\nsamples = 1\nvalue = 1.0", fillcolor="#e58139"] ;
113 -> 114 ;
115 [label="curvatura <= -0.518\nmse = 0.003\nsamples = 181\nvalue = 0.003", fillcolor="#fffffe"] ;
113 -> 115 ;
116 [label="curvatura <= -0.519\nmse = 0.038\nsamples = 15\nvalue = 0.04", fillcolor="#fefaf7"] ;
115 -> 116 ;
117 [label="mse = 0.0\nsamples = 14\nvalue = 0.0", fillcolor="#ffffff"] ;
116 -> 117 ;
118 [label="mse = 0.0\nsamples = 1\nvalue = 1.0", fillcolor="#e58139"] ;
116 -> 118 ;
119 [label="mse = 0.0\nsamples = 166\nvalue = 0.0", fillcolor="#ffffff"] ;
115 -> 119 ;
120 [label="mse = 0.0\nsamples = 1\nvalue = 1.0", fillcolor="#e58139"] ;
106 -> 120 ;
121 [label="pendiente <= -0.388\nmse = 0.001\nsamples = 1294\nvalue = 0.001", fillcolor="#ffffff"] ;
105 -> 121 ;
122 [label="pendiente <= -0.388\nmse = 0.003\nsamples = 421\nvalue = 0.003", fillcolor="#fffffe"] ;
121 -> 122 ;
123 [label="mse = 0.0\nsamples = 420\nvalue = 0.0", fillcolor="#ffffff"] ;
122 -> 123 ;
124 [label="mse = 0.0\nsamples = 1\nvalue = 1.0", fillcolor="#e58139"] ;
122 -> 124 ;
125 [label="mse = 0.0\nsamples = 873\nvalue = 0.0", fillcolor="#ffffff"] ;
121 -> 125 ;
126 [label="aspecto <= -1.357\nmse = 0.023\nsamples = 150\nvalue = 0.024", fillcolor="#fefcfa"] ;
104 -> 126 ;
127 [label="mse = 0.0\nsamples = 1\nvalue = 1.0", fillcolor="#e58139"] ;
126 -> 127 ;
128 [label="pendiente <= -0.042\nmse = 0.016\nsamples = 149\nvalue = 0.016", fillcolor="#fffdfc"] ;
126 -> 128 ;
129 [label="mse = 0.0\nsamples = 110\nvalue = 0.0", fillcolor="#ffffff"] ;
128 -> 129 ;
130 [label="pendiente <= -0.039\nmse = 0.058\nsamples = 39\nvalue = 0.062", fillcolor="#fdf7f3"] ;
128 -> 130 ;
131 [label="mse = 0.0\nsamples = 1\nvalue = 1.0", fillcolor="#e58139"] ;
130 -> 131 ;
132 [label="curvatura <= -0.436\nmse = 0.016\nsamples = 38\nvalue = 0.016", fillcolor="#fffdfc"] ;
130 -> 132 ;
133 [label="curvatura <= -0.731\nmse = 0.16\nsamples = 4\nvalue = 0.2", fillcolor="#fae6d7"] ;
132 -> 133 ;
134 [label="mse = 0.0\nsamples = 3\nvalue = 0.0", fillcolor="#ffffff"] ;
133 -> 134 ;
135 [label="mse = 0.0\nsamples = 1\nvalue = 1.0", fillcolor="#e58139"] ;
133 -> 135 ;
136 [label="mse = 0.0\nsamples = 34\nvalue = 0.0", fillcolor="#ffffff"] ;
132 -> 136 ;
137 [label="mse = 0.0\nsamples = 1\nvalue = 1.0", fillcolor="#e58139"] ;
103 -> 137 ;
138 [label="pendiente <= 0.009\nmse = 0.001\nsamples = 4890\nvalue = 0.001", fillcolor="#ffffff"] ;
102 -> 138 ;
139 [label="aspecto <= -0.78\nmse = 0.001\nsamples = 3863\nvalue = 0.001", fillcolor="#ffffff"] ;
138 -> 139 ;
140 [label="mse = 0.0\nsamples = 3237\nvalue = 0.0", fillcolor="#ffffff"] ;
139 -> 140 ;
141 [label="aspecto <= -0.779\nmse = 0.004\nsamples = 626\nvalue = 0.004", fillcolor="#fffffe"] ;
139 -> 141 ;
142 [label="mse = 0.0\nsamples = 1\nvalue = 1.0", fillcolor="#e58139"] ;
141 -> 142 ;
143 [label="flujo_acum <= -0.086\nmse = 0.003\nsamples = 625\nvalue = 0.003", fillcolor="#fffffe"] ;
141 -> 143 ;
144 [label="mse = 0.0\nsamples = 512\nvalue = 0.0", fillcolor="#ffffff"] ;
143 -> 144 ;
145 [label="flujo_acum <= -0.086\nmse = 0.016\nsamples = 113\nvalue = 0.016", fillcolor="#fffdfc"] ;
143 -> 145 ;
146 [label="curvatura <= -0.657\nmse = 0.109\nsamples = 11\nvalue = 0.125", fillcolor="#fcefe6"] ;
145 -> 146 ;
147 [label="curvatura <= -0.966\nmse = 0.25\nsamples = 2\nvalue = 0.5", fillcolor="#f2c09c"] ;
146 -> 147 ;
148 [label="mse = 0.0\nsamples = 1\nvalue = 0.0", fillcolor="#ffffff"] ;
147 -> 148 ;
149 [label="mse = 0.0\nsamples = 1\nvalue = 1.0", fillcolor="#e58139"] ;
147 -> 149 ;
150 [label="mse = 0.0\nsamples = 9\nvalue = 0.0", fillcolor="#ffffff"] ;
146 -> 150 ;
151 [label="pendiente <= -0.668\nmse = 0.006\nsamples = 102\nvalue = 0.006", fillcolor="#fffefe"] ;
145 -> 151 ;
152 [label="pendiente <= -0.702\nmse = 0.05\nsamples = 9\nvalue = 0.053", fillcolor="#fef8f5"] ;
151 -> 152 ;
153 [label="mse = 0.0\nsamples = 8\nvalue = 0.0", fillcolor="#ffffff"] ;
152 -> 153 ;
154 [label="mse = 0.0\nsamples = 1\nvalue = 1.0", fillcolor="#e58139"] ;
152 -> 154 ;
155 [label="mse = 0.0\nsamples = 93\nvalue = 0.0", fillcolor="#ffffff"] ;
151 -> 155 ;
156 [label="pendiente <= 0.009\nmse = 0.004\nsamples = 1027\nvalue = 0.004", fillcolor="#fffefe"] ;
138 -> 156 ;
157 [label="mse = 0.0\nsamples = 1\nvalue = 1.0", fillcolor="#e58139"] ;
156 -> 157 ;
158 [label="curvatura <= -1.275\nmse = 0.003\nsamples = 1026\nvalue = 0.003", fillcolor="#fffffe"] ;
156 -> 158 ;
159 [label="curvatura <= -1.277\nmse = 0.014\nsamples = 87\nvalue = 0.014", fillcolor="#fffdfc"] ;
158 -> 159 ;
160 [label="mse = 0.0\nsamples = 86\nvalue = 0.0", fillcolor="#ffffff"] ;
159 -> 160 ;
161 [label="mse = 0.0\nsamples = 1\nvalue = 1.0", fillcolor="#e58139"] ;
159 -> 161 ;
162 [label="curvatura <= 1.027\nmse = 0.002\nsamples = 939\nvalue = 0.002", fillcolor="#ffffff"] ;
158 -> 162 ;
163 [label="aspecto <= -1.282\nmse = 0.001\nsamples = 841\nvalue = 0.001", fillcolor="#ffffff"] ;
162 -> 163 ;
164 [label="aspecto <= -1.283\nmse = 0.008\nsamples = 88\nvalue = 0.008", fillcolor="#fffefd"] ;
163 -> 164 ;
165 [label="mse = 0.0\nsamples = 87\nvalue = 0.0", fillcolor="#ffffff"] ;
164 -> 165 ;
166 [label="mse = 0.0\nsamples = 1\nvalue = 1.0", fillcolor="#e58139"] ;
164 -> 166 ;
167 [label="mse = 0.0\nsamples = 753\nvalue = 0.0", fillcolor="#ffffff"] ;
163 -> 167 ;
168 [label="curvatura <= 1.03\nmse = 0.013\nsamples = 98\nvalue = 0.013", fillcolor="#fffdfc"] ;
162 -> 168 ;
169 [label="mse = 0.0\nsamples = 1\nvalue = 1.0", fillcolor="#e58139"] ;
168 -> 169 ;
170 [label="curvatura <= 1.136\nmse = 0.007\nsamples = 97\nvalue = 0.007", fillcolor="#fffefe"] ;
168 -> 170 ;
171 [label="curvatura <= 1.134\nmse = 0.028\nsamples = 24\nvalue = 0.029", fillcolor="#fefbf9"] ;
170 -> 171 ;
172 [label="mse = 0.0\nsamples = 23\nvalue = 0.0", fillcolor="#ffffff"] ;
171 -> 172 ;
173 [label="mse = 0.0\nsamples = 1\nvalue = 1.0", fillcolor="#e58139"] ;
171 -> 173 ;
174 [label="mse = 0.0\nsamples = 73\nvalue = 0.0", fillcolor="#ffffff"] ;
170 -> 174 ;
175 [label="curvatura <= 1.659\nmse = 0.013\nsamples = 292\nvalue = 0.013", fillcolor="#fffdfc"] ;
101 -> 175 ;
176 [label="mse = 0.0\nsamples = 1\nvalue = 1.0", fillcolor="#e58139"] ;
175 -> 176 ;
177 [label="pendiente <= 0.15\nmse = 0.011\nsamples = 291\nvalue = 0.011", fillcolor="#fffefd"] ;
175 -> 177 ;
178 [label="pendiente <= 0.058\nmse = 0.007\nsamples = 286\nvalue = 0.007", fillcolor="#fffefe"] ;
177 -> 178 ;
179 [label="curvatura <= 1.797\nmse = 0.002\nsamples = 258\nvalue = 0.002", fillcolor="#ffffff"] ;
178 -> 179 ;
180 [label="curvatura <= 1.793\nmse = 0.01\nsamples = 66\nvalue = 0.01", fillcolor="#fffefd"] ;
179 -> 180 ;
181 [label="mse = 0.0\nsamples = 65\nvalue = 0.0", fillcolor="#ffffff"] ;
180 -> 181 ;
182 [label="mse = 0.0\nsamples = 1\nvalue = 1.0", fillcolor="#e58139"] ;
180 -> 182 ;
183 [label="mse = 0.0\nsamples = 192\nvalue = 0.0", fillcolor="#ffffff"] ;
179 -> 183 ;
184 [label="pendiente <= 0.065\nmse = 0.044\nsamples = 28\nvalue = 0.047", fillcolor="#fef9f6"] ;
178 -> 184 ;
185 [label="mse = 0.0\nsamples = 1\nvalue = 1.0", fillcolor="#e58139"] ;
184 -> 185 ;
186 [label="mse = 0.0\nsamples = 27\nvalue = 0.0", fillcolor="#ffffff"] ;
184 -> 186 ;
187 [label="curvatura <= 1.872\nmse = 0.16\nsamples = 5\nvalue = 0.2", fillcolor="#fae6d7"] ;
177 -> 187 ;
188 [label="mse = 0.0\nsamples = 1\nvalue = 1.0", fillcolor="#e58139"] ;
187 -> 188 ;
189 [label="mse = 0.0\nsamples = 4\nvalue = 0.0", fillcolor="#ffffff"] ;
187 -> 189 ;
190 [label="aspecto <= -0.647\nmse = 0.008\nsamples = 11839\nvalue = 0.008", fillcolor="#fffefd"] ;
96 -> 190 ;
191 [label="mse = 0.0\nsamples = 1\nvalue = 1.0", fillcolor="#e58139"] ;
190 -> 191 ;
192 [label="pendiente <= -0.775\nmse = 0.008\nsamples = 11838\nvalue = 0.008", fillcolor="#fffefd"] ;
190 -> 192 ;
193 [label="pendiente <= -0.776\nmse = 0.068\nsamples = 26\nvalue = 0.073", fillcolor="#fdf6f1"] ;
192 -> 193 ;
194 [label="mse = 0.0\nsamples = 25\nvalue = 0.0", fillcolor="#ffffff"] ;
193 -> 194 ;
195 [label="mse = 0.0\nsamples = 1\nvalue = 1.0", fillcolor="#e58139"] ;
193 -> 195 ;
196 [label="curvatura <= 1.048\nmse = 0.008\nsamples = 11812\nvalue = 0.008", fillcolor="#fffefd"] ;
192 -> 196 ;
197 [label="pendiente <= -0.247\nmse = 0.007\nsamples = 10487\nvalue = 0.007", fillcolor="#fffefe"] ;
196 -> 197 ;
198 [label="pendiente <= -0.555\nmse = 0.004\nsamples = 4927\nvalue = 0.004", fillcolor="#fffffe"] ;
197 -> 198 ;
199 [label="pendiente <= -0.555\nmse = 0.007\nsamples = 1816\nvalue = 0.007", fillcolor="#fffefe"] ;
198 -> 199 ;
200 [label="aspecto <= 1.096\nmse = 0.006\nsamples = 1815\nvalue = 0.007", fillcolor="#fffefe"] ;
199 -> 200 ;
201 [label="aspecto <= 1.095\nmse = 0.009\nsamples = 1262\nvalue = 0.009", fillcolor="#fffefd"] ;
200 -> 201 ;
202 [label="aspecto <= 1.092\nmse = 0.009\nsamples = 1261\nvalue = 0.009", fillcolor="#fffefd"] ;
201 -> 202 ;
203 [label="pendiente <= -0.625\nmse = 0.008\nsamples = 1254\nvalue = 0.008", fillcolor="#fffefd"] ;
202 -> 203 ;
204 [label="pendiente <= -0.707\nmse = 0.004\nsamples = 847\nvalue = 0.004", fillcolor="#fffefe"] ;
203 -> 204 ;
205 [label="pendiente <= -0.708\nmse = 0.01\nsamples = 355\nvalue = 0.01", fillcolor="#fffefd"] ;
204 -> 205 ;
206 [label="curvatura <= 0.025\nmse = 0.009\nsamples = 354\nvalue = 0.009", fillcolor="#fffefd"] ;
205 -> 206 ;
207 [label="mse = 0.0\nsamples = 197\nvalue = 0.0", fillcolor="#ffffff"] ;
206 -> 207 ;
208 [label="curvatura <= 0.03\nmse = 0.02\nsamples = 157\nvalue = 0.02", fillcolor="#fefcfb"] ;
206 -> 208 ;
209 [label="mse = 0.0\nsamples = 1\nvalue = 1.0", fillcolor="#e58139"] ;
208 -> 209 ;
210 [label="curvatura <= 0.246\nmse = 0.016\nsamples = 156\nvalue = 0.016", fillcolor="#fffdfc"] ;
208 -> 210 ;
211 [label="curvatura <= 0.242\nmse = 0.058\nsamples = 42\nvalue = 0.062", fillcolor="#fdf7f3"] ;
210 -> 211 ;
212 [label="flujo_acum <= -0.089\nmse = 0.031\nsamples = 41\nvalue = 0.032", fillcolor="#fefbf9"] ;
211 -> 212 ;
213 [label="mse = 0.0\nsamples = 32\nvalue = 0.0", fillcolor="#ffffff"] ;
212 -> 213 ;
214 [label="aspecto <= 0.734\nmse = 0.13\nsamples = 9\nvalue = 0.154", fillcolor="#fbece1"] ;
212 -> 214 ;
215 [label="mse = 0.0\nsamples = 7\nvalue = 0.0", fillcolor="#ffffff"] ;
214 -> 215 ;
216 [label="aspecto <= 0.892\nmse = 0.222\nsamples = 2\nvalue = 0.667", fillcolor="#eeab7b"] ;
214 -> 216 ;
217 [label="mse = 0.0\nsamples = 1\nvalue = 1.0", fillcolor="#e58139"] ;
216 -> 217 ;
218 [label="mse = 0.0\nsamples = 1\nvalue = 0.0", fillcolor="#ffffff"] ;
216 -> 218 ;
219 [label="mse = 0.0\nsamples = 1\nvalue = 1.0", fillcolor="#e58139"] ;
211 -> 219 ;
220 [label="mse = 0.0\nsamples = 114\nvalue = 0.0", fillcolor="#ffffff"] ;
210 -> 220 ;
221 [label="mse = 0.0\nsamples = 1\nvalue = 1.0", fillcolor="#e58139"] ;
205 -> 221 ;
222 [label="mse = 0.0\nsamples = 492\nvalue = 0.0", fillcolor="#ffffff"] ;
204 -> 222 ;
223 [label="pendiente <= -0.625\nmse = 0.015\nsamples = 407\nvalue = 0.015", fillcolor="#fffdfc"] ;
203 -> 223 ;
224 [label="mse = 0.0\nsamples = 1\nvalue = 1.0", fillcolor="#e58139"] ;
223 -> 224 ;
225 [label="pendiente <= -0.618\nmse = 0.009\nsamples = 406\nvalue = 0.009", fillcolor="#fffefd"] ;
223 -> 225 ;
226 [label="pendiente <= -0.618\nmse = 0.033\nsamples = 37\nvalue = 0.034", fillcolor="#fefbf8"] ;
225 -> 226 ;
227 [label="aspecto <= 0.979\nmse = 0.017\nsamples = 36\nvalue = 0.018", fillcolor="#fffdfc"] ;
226 -> 227 ;
228 [label="mse = 0.0\nsamples = 32\nvalue = 0.0", fillcolor="#ffffff"] ;
227 -> 228 ;
229 [label="pendiente <= -0.62\nmse = 0.16\nsamples = 4\nvalue = 0.2", fillcolor="#fae6d7"] ;
227 -> 229 ;
230 [label="mse = 0.0\nsamples = 3\nvalue = 0.0", fillcolor="#ffffff"] ;
229 -> 230 ;
231 [label="mse = 0.0\nsamples = 1\nvalue = 1.0", fillcolor="#e58139"] ;
229 -> 231 ;
232 [label="mse = 0.0\nsamples = 1\nvalue = 1.0", fillcolor="#e58139"] ;
226 -> 232 ;
233 [label="curvatura <= 0.824\nmse = 0.007\nsamples = 369\nvalue = 0.007", fillcolor="#fffefe"] ;
225 -> 233 ;
234 [label="curvatura <= -0.187\nmse = 0.005\nsamples = 355\nvalue = 0.005", fillcolor="#fffefe"] ;
233 -> 234 ;
235 [label="curvatura <= -0.193\nmse = 0.011\nsamples = 161\nvalue = 0.012", fillcolor="#fffefd"] ;
234 -> 235 ;
236 [label="pendiente <= -0.579\nmse = 0.008\nsamples = 160\nvalue = 0.008", fillcolor="#fffefd"] ;
235 -> 236 ;
237 [label="mse = 0.0\nsamples = 94\nvalue = 0.0", fillcolor="#ffffff"] ;
236 -> 237 ;
238 [label="pendiente <= -0.579\nmse = 0.017\nsamples = 66\nvalue = 0.018", fillcolor="#fffdfb"] ;
236 -> 238 ;
239 [label="mse = 0.0\nsamples = 1\nvalue = 1.0", fillcolor="#e58139"] ;
238 -> 239 ;
240 [label="curvatura <= -1.121\nmse = 0.009\nsamples = 65\nvalue = 0.009", fillcolor="#fffefd"] ;
238 -> 240 ;
241 [label="curvatura <= -1.199\nmse = 0.036\nsamples = 17\nvalue = 0.037", fillcolor="#fefaf8"] ;
240 -> 241 ;
242 [label="mse = 0.0\nsamples = 16\nvalue = 0.0", fillcolor="#ffffff"] ;
241 -> 242 ;
243 [label="mse = 0.0\nsamples = 1\nvalue = 1.0", fillcolor="#e58139"] ;
241 -> 243 ;
244 [label="mse = 0.0\nsamples = 48\nvalue = 0.0", fillcolor="#ffffff"] ;
240 -> 244 ;
245 [label="mse = 0.0\nsamples = 1\nvalue = 1.0", fillcolor="#e58139"] ;
235 -> 245 ;
246 [label="mse = 0.0\nsamples = 194\nvalue = 0.0", fillcolor="#ffffff"] ;
234 -> 246 ;
247 [label="curvatura <= 0.83\nmse = 0.052\nsamples = 14\nvalue = 0.056", fillcolor="#fef8f4"] ;
233 -> 247 ;
248 [label="mse = 0.0\nsamples = 1\nvalue = 1.0", fillcolor="#e58139"] ;
247 -> 248 ;
249 [label="mse = 0.0\nsamples = 13\nvalue = 0.0", fillcolor="#ffffff"] ;
247 -> 249 ;
250 [label="curvatura <= -0.108\nmse = 0.149\nsamples = 7\nvalue = 0.182", fillcolor="#fae8db"] ;
202 -> 250 ;
251 [label="mse = 0.0\nsamples = 1\nvalue = 1.0", fillcolor="#e58139"] ;
250 -> 251 ;
252 [label="mse = 0.0\nsamples = 6\nvalue = 0.0", fillcolor="#ffffff"] ;
250 -> 252 ;
253 [label="mse = 0.0\nsamples = 1\nvalue = 1.0", fillcolor="#e58139"] ;
201 -> 253 ;
254 [label="mse = 0.0\nsamples = 553\nvalue = 0.0", fillcolor="#ffffff"] ;
200 -> 254 ;
255 [label="mse = 0.0\nsamples = 1\nvalue = 1.0", fillcolor="#e58139"] ;
199 -> 255 ;
256 [label="aspecto <= -0.142\nmse = 0.002\nsamples = 3111\nvalue = 0.002", fillcolor="#ffffff"] ;
198 -> 256 ;
257 [label="aspecto <= -0.145\nmse = 0.005\nsamples = 598\nvalue = 0.005", fillcolor="#fffefe"] ;
256 -> 257 ;
258 [label="pendiente <= -0.406\nmse = 0.003\nsamples = 597\nvalue = 0.003", fillcolor="#fffffe"] ;
257 -> 258 ;
259 [label="pendiente <= -0.407\nmse = 0.007\nsamples = 246\nvalue = 0.007", fillcolor="#fffefe"] ;
258 -> 259 ;
260 [label="pendiente <= -0.409\nmse = 0.005\nsamples = 245\nvalue = 0.005", fillcolor="#fffefe"] ;
259 -> 260 ;
261 [label="aspecto <= -0.55\nmse = 0.003\nsamples = 240\nvalue = 0.003", fillcolor="#fffffe"] ;
260 -> 261 ;
262 [label="aspecto <= -0.553\nmse = 0.011\nsamples = 56\nvalue = 0.011", fillcolor="#fffefd"] ;
261 -> 262 ;
263 [label="mse = 0.0\nsamples = 55\nvalue = 0.0", fillcolor="#ffffff"] ;
262 -> 263 ;
264 [label="mse = 0.0\nsamples = 1\nvalue = 1.0", fillcolor="#e58139"] ;
262 -> 264 ;
265 [label="mse = 0.0\nsamples = 184\nvalue = 0.0", fillcolor="#ffffff"] ;
261 -> 265 ;
266 [label="flujo_acum <= -0.086\nmse = 0.109\nsamples = 5\nvalue = 0.125", fillcolor="#fcefe6"] ;
260 -> 266 ;
267 [label="mse = 0.0\nsamples = 4\nvalue = 0.0", fillcolor="#ffffff"] ;
266 -> 267 ;
268 [label="mse = 0.0\nsamples = 1\nvalue = 1.0", fillcolor="#e58139"] ;
266 -> 268 ;
269 [label="mse = 0.0\nsamples = 1\nvalue = 1.0", fillcolor="#e58139"] ;
259 -> 269 ;
270 [label="mse = 0.0\nsamples = 351\nvalue = 0.0", fillcolor="#ffffff"] ;
258 -> 270 ;
271 [label="mse = 0.0\nsamples = 1\nvalue = 1.0", fillcolor="#e58139"] ;
257 -> 271 ;
272 [label="aspecto <= 0.752\nmse = 0.001\nsamples = 2513\nvalue = 0.001", fillcolor="#ffffff"] ;
256 -> 272 ;
273 [label="mse = 0.0\nsamples = 808\nvalue = 0.0", fillcolor="#ffffff"] ;
272 -> 273 ;
274 [label="aspecto <= 0.754\nmse = 0.002\nsamples = 1705\nvalue = 0.002", fillcolor="#ffffff"] ;
272 -> 274 ;
275 [label="mse = 0.0\nsamples = 1\nvalue = 1.0", fillcolor="#e58139"] ;
274 -> 275 ;
276 [label="pendiente <= -0.314\nmse = 0.001\nsamples = 1704\nvalue = 0.001", fillcolor="#ffffff"] ;
274 -> 276 ;
277 [label="curvatura <= 0.848\nmse = 0.0\nsamples = 1297\nvalue = 0.0", fillcolor="#ffffff"] ;
276 -> 277 ;
278 [label="mse = 0.0\nsamples = 1218\nvalue = 0.0", fillcolor="#ffffff"] ;
277 -> 278 ;
279 [label="curvatura <= 0.853\nmse = 0.007\nsamples = 79\nvalue = 0.007", fillcolor="#fffefe"] ;
277 -> 279 ;
280 [label="mse = 0.0\nsamples = 1\nvalue = 1.0", fillcolor="#e58139"] ;
279 -> 280 ;
281 [label="mse = 0.0\nsamples = 78\nvalue = 0.0", fillcolor="#ffffff"] ;
279 -> 281 ;
282 [label="pendiente <= -0.314\nmse = 0.005\nsamples = 407\nvalue = 0.005", fillcolor="#fffefe"] ;
276 -> 282 ;
283 [label="mse = 0.0\nsamples = 1\nvalue = 1.0", fillcolor="#e58139"] ;
282 -> 283 ;
284 [label="aspecto <= 1.393\nmse = 0.003\nsamples = 406\nvalue = 0.003", fillcolor="#fffffe"] ;
282 -> 284 ;
285 [label="flujo_acum <= -0.09\nmse = 0.002\nsamples = 383\nvalue = 0.002", fillcolor="#ffffff"] ;
284 -> 285 ;
286 [label="curvatura <= 0.167\nmse = 0.005\nsamples = 124\nvalue = 0.005", fillcolor="#fffefe"] ;
285 -> 286 ;
287 [label="curvatura <= 0.15\nmse = 0.015\nsamples = 44\nvalue = 0.015", fillcolor="#fffdfc"] ;
286 -> 287 ;
288 [label="mse = 0.0\nsamples = 43\nvalue = 0.0", fillcolor="#ffffff"] ;
287 -> 288 ;
289 [label="mse = 0.0\nsamples = 1\nvalue = 1.0", fillcolor="#e58139"] ;
287 -> 289 ;
290 [label="mse = 0.0\nsamples = 80\nvalue = 0.0", fillcolor="#ffffff"] ;
286 -> 290 ;
291 [label="mse = 0.0\nsamples = 259\nvalue = 0.0", fillcolor="#ffffff"] ;
285 -> 291 ;
292 [label="aspecto <= 1.394\nmse = 0.028\nsamples = 23\nvalue = 0.029", fillcolor="#fefbf9"] ;
284 -> 292 ;
293 [label="mse = 0.0\nsamples = 1\nvalue = 1.0", fillcolor="#e58139"] ;
292 -> 293 ;
294 [label="mse = 0.0\nsamples = 22\nvalue = 0.0", fillcolor="#ffffff"] ;
292 -> 294 ;
295 [label="pendiente <= -0.247\nmse = 0.009\nsamples = 5560\nvalue = 0.009", fillcolor="#fffefd"] ;
197 -> 295 ;
296 [label="mse = 0.0\nsamples = 1\nvalue = 1.0", fillcolor="#e58139"] ;
295 -> 296 ;
297 [label="aspecto <= 1.399\nmse = 0.009\nsamples = 5559\nvalue = 0.009", fillcolor="#fffefd"] ;
295 -> 297 ;
298 [label="flujo_acum <= -0.084\nmse = 0.009\nsamples = 5455\nvalue = 0.009", fillcolor="#fffefd"] ;
297 -> 298 ;
299 [label="curvatura <= -1.009\nmse = 0.01\nsamples = 4778\nvalue = 0.01", fillcolor="#fffefd"] ;
298 -> 299 ;
300 [label="curvatura <= -1.023\nmse = 0.022\nsamples = 373\nvalue = 0.023", fillcolor="#fefcfb"] ;
299 -> 300 ;
301 [label="flujo_acum <= -0.084\nmse = 0.014\nsamples = 367\nvalue = 0.014", fillcolor="#fffdfc"] ;
300 -> 301 ;
302 [label="aspecto <= 0.489\nmse = 0.011\nsamples = 360\nvalue = 0.011", fillcolor="#fffefd"] ;
301 -> 302 ;
303 [label="mse = 0.0\nsamples = 150\nvalue = 0.0", fillcolor="#ffffff"] ;
302 -> 303 ;
304 [label="aspecto <= 0.505\nmse = 0.018\nsamples = 210\nvalue = 0.018", fillcolor="#fffdfb"] ;
302 -> 304 ;
305 [label="mse = 0.0\nsamples = 1\nvalue = 1.0", fillcolor="#e58139"] ;
304 -> 305 ;
306 [label="aspecto <= 0.547\nmse = 0.012\nsamples = 209\nvalue = 0.012", fillcolor="#fffdfd"] ;
304 -> 306 ;
307 [label="aspecto <= 0.538\nmse = 0.222\nsamples = 4\nvalue = 0.333", fillcolor="#f6d5bd"] ;
306 -> 307 ;
308 [label="mse = 0.0\nsamples = 3\nvalue = 0.0", fillcolor="#ffffff"] ;
307 -> 308 ;
309 [label="mse = 0.0\nsamples = 1\nvalue = 1.0", fillcolor="#e58139"] ;
307 -> 309 ;
310 [label="flujo_acum <= -0.086\nmse = 0.006\nsamples = 205\nvalue = 0.006", fillcolor="#fffefe"] ;
306 -> 310 ;
311 [label="aspecto <= 1.318\nmse = 0.004\nsamples = 174\nvalue = 0.004", fillcolor="#fffffe"] ;
310 -> 311 ;
312 [label="mse = 0.0\nsamples = 150\nvalue = 0.0", fillcolor="#ffffff"] ;
311 -> 312 ;
313 [label="aspecto <= 1.322\nmse = 0.023\nsamples = 24\nvalue = 0.024", fillcolor="#fefcfa"] ;
311 -> 313 ;
314 [label="mse = 0.0\nsamples = 1\nvalue = 1.0", fillcolor="#e58139"] ;
313 -> 314 ;
315 [label="mse = 0.0\nsamples = 23\nvalue = 0.0", fillcolor="#ffffff"] ;
313 -> 315 ;
316 [label="aspecto <= 0.79\nmse = 0.022\nsamples = 31\nvalue = 0.023", fillcolor="#fefcfa"] ;
310 -> 316 ;
317 [label="flujo_acum <= -0.086\nmse = 0.16\nsamples = 4\nvalue = 0.2", fillcolor="#fae6d7"] ;
316 -> 317 ;
318 [label="mse = 0.0\nsamples = 1\nvalue = 1.0", fillcolor="#e58139"] ;
317 -> 318 ;
319 [label="mse = 0.0\nsamples = 3\nvalue = 0.0", fillcolor="#ffffff"] ;
317 -> 319 ;
320 [label="mse = 0.0\nsamples = 27\nvalue = 0.0", fillcolor="#ffffff"] ;
316 -> 320 ;
321 [label="pendiente <= -0.198\nmse = 0.188\nsamples = 7\nvalue = 0.25", fillcolor="#f8e0ce"] ;
301 -> 321 ;
322 [label="mse = 0.0\nsamples = 1\nvalue = 1.0", fillcolor="#e58139"] ;
321 -> 322 ;
323 [label="mse = 0.0\nsamples = 6\nvalue = 0.0", fillcolor="#ffffff"] ;
321 -> 323 ;
324 [label="aspecto <= -0.042\nmse = 0.247\nsamples = 6\nvalue = 0.556", fillcolor="#f1b991"] ;
300 -> 324 ;
325 [label="mse = 0.0\nsamples = 2\nvalue = 1.0", fillcolor="#e58139"] ;
324 -> 325 ;
326 [label="aspecto <= 0.989\nmse = 0.222\nsamples = 4\nvalue = 0.333", fillcolor="#f6d5bd"] ;
324 -> 326 ;
327 [label="mse = 0.0\nsamples = 3\nvalue = 0.0", fillcolor="#ffffff"] ;
326 -> 327 ;
328 [label="mse = 0.0\nsamples = 1\nvalue = 1.0", fillcolor="#e58139"] ;
326 -> 328 ;
329 [label="aspecto <= -0.62\nmse = 0.009\nsamples = 4405\nvalue = 0.009", fillcolor="#fffefd"] ;
299 -> 329 ;
330 [label="aspecto <= -0.62\nmse = 0.037\nsamples = 75\nvalue = 0.039", fillcolor="#fefaf7"] ;
329 -> 330 ;
331 [label="flujo_acum <= -0.086\nmse = 0.019\nsamples = 74\nvalue = 0.02", fillcolor="#fefdfb"] ;
330 -> 331 ;
332 [label="pendiente <= 0.135\nmse = 0.01\nsamples = 68\nvalue = 0.011", fillcolor="#fffefd"] ;
331 -> 332 ;
333 [label="mse = 0.0\nsamples = 61\nvalue = 0.0", fillcolor="#ffffff"] ;
332 -> 333 ;
334 [label="pendiente <= 0.139\nmse = 0.09\nsamples = 7\nvalue = 0.1", fillcolor="#fcf2eb"] ;
332 -> 334 ;
335 [label="mse = 0.0\nsamples = 1\nvalue = 1.0", fillcolor="#e58139"] ;
334 -> 335 ;
336 [label="mse = 0.0\nsamples = 6\nvalue = 0.0", fillcolor="#ffffff"] ;
334 -> 336 ;
337 [label="curvatura <= 0.372\nmse = 0.139\nsamples = 6\nvalue = 0.167", fillcolor="#fbeade"] ;
331 -> 337 ;
338 [label="mse = 0.0\nsamples = 5\nvalue = 0.0", fillcolor="#ffffff"] ;
337 -> 338 ;
339 [label="mse = 0.0\nsamples = 1\nvalue = 1.0", fillcolor="#e58139"] ;
337 -> 339 ;
340 [label="mse = 0.0\nsamples = 1\nvalue = 1.0", fillcolor="#e58139"] ;
330 -> 340 ;
341 [label="aspecto <= 0.367\nmse = 0.008\nsamples = 4330\nvalue = 0.008", fillcolor="#fffefd"] ;
329 -> 341 ;
342 [label="aspecto <= -0.541\nmse = 0.003\nsamples = 1464\nvalue = 0.003", fillcolor="#fffffe"] ;
341 -> 342 ;
343 [label="aspecto <= -0.541\nmse = 0.015\nsamples = 206\nvalue = 0.015", fillcolor="#fffdfc"] ;
342 -> 343 ;
344 [label="curvatura <= -0.094\nmse = 0.009\nsamples = 205\nvalue = 0.009", fillcolor="#fffefd"] ;
343 -> 344 ;
345 [label="curvatura <= -0.107\nmse = 0.025\nsamples = 72\nvalue = 0.026", fillcolor="#fefcfa"] ;
344 -> 345 ;
346 [label="flujo_acum <= -0.09\nmse = 0.009\nsamples = 71\nvalue = 0.009", fillcolor="#fffefd"] ;
345 -> 346 ;
347 [label="aspecto <= -0.561\nmse = 0.04\nsamples = 16\nvalue = 0.042", fillcolor="#fefaf7"] ;
346 -> 347 ;
348 [label="mse = 0.0\nsamples = 13\nvalue = 0.0", fillcolor="#ffffff"] ;
347 -> 348 ;
349 [label="aspecto <= -0.558\nmse = 0.222\nsamples = 3\nvalue = 0.333", fillcolor="#f6d5bd"] ;
347 -> 349 ;
350 [label="mse = 0.0\nsamples = 1\nvalue = 1.0", fillcolor="#e58139"] ;
349 -> 350 ;
351 [label="mse = 0.0\nsamples = 2\nvalue = 0.0", fillcolor="#ffffff"] ;
349 -> 351 ;
352 [label="mse = 0.0\nsamples = 55\nvalue = 0.0", fillcolor="#ffffff"] ;
346 -> 352 ;
353 [label="mse = 0.0\nsamples = 1\nvalue = 1.0", fillcolor="#e58139"] ;
345 -> 353 ;
354 [label="mse = 0.0\nsamples = 133\nvalue = 0.0", fillcolor="#ffffff"] ;
344 -> 354 ;
355 [label="mse = 0.0\nsamples = 1\nvalue = 1.0", fillcolor="#e58139"] ;
343 -> 355 ;
356 [label="pendiente <= 0.159\nmse = 0.001\nsamples = 1258\nvalue = 0.001", fillcolor="#ffffff"] ;
342 -> 356 ;
357 [label="curvatura <= 0.855\nmse = 0.001\nsamples = 1195\nvalue = 0.001", fillcolor="#ffffff"] ;
356 -> 357 ;
358 [label="mse = 0.0\nsamples = 1132\nvalue = 0.0", fillcolor="#ffffff"] ;
357 -> 358 ;
359 [label="curvatura <= 0.857\nmse = 0.009\nsamples = 63\nvalue = 0.009", fillcolor="#fffefd"] ;
357 -> 359 ;
360 [label="mse = 0.0\nsamples = 1\nvalue = 1.0", fillcolor="#e58139"] ;
359 -> 360 ;
361 [label="mse = 0.0\nsamples = 62\nvalue = 0.0", fillcolor="#ffffff"] ;
359 -> 361 ;
362 [label="pendiente <= 0.16\nmse = 0.018\nsamples = 63\nvalue = 0.019", fillcolor="#fffdfb"] ;
356 -> 362 ;
363 [label="mse = 0.0\nsamples = 1\nvalue = 1.0", fillcolor="#e58139"] ;
362 -> 363 ;
364 [label="mse = 0.0\nsamples = 62\nvalue = 0.0", fillcolor="#ffffff"] ;
362 -> 364 ;
365 [label="aspecto <= 0.368\nmse = 0.011\nsamples = 2866\nvalue = 0.011", fillcolor="#fffefd"] ;
341 -> 365 ;
366 [label="mse = 0.0\nsamples = 1\nvalue = 1.0", fillcolor="#e58139"] ;
365 -> 366 ;
367 [label="aspecto <= 0.406\nmse = 0.01\nsamples = 2865\nvalue = 0.011", fillcolor="#fffefd"] ;
365 -> 367 ;
368 [label="aspecto <= 0.405\nmse = 0.069\nsamples = 49\nvalue = 0.075", fillcolor="#fdf6f0"] ;
367 -> 368 ;
369 [label="curvatura <= -0.225\nmse = 0.026\nsamples = 48\nvalue = 0.026", fillcolor="#fefcfa"] ;
368 -> 369 ;
370 [label="curvatura <= -0.278\nmse = 0.086\nsamples = 13\nvalue = 0.095", fillcolor="#fdf3ec"] ;
369 -> 370 ;
371 [label="mse = 0.0\nsamples = 12\nvalue = 0.0", fillcolor="#ffffff"] ;
370 -> 371 ;
372 [label="mse = 0.0\nsamples = 1\nvalue = 1.0", fillcolor="#e58139"] ;
370 -> 372 ;
373 [label="mse = 0.0\nsamples = 35\nvalue = 0.0", fillcolor="#ffffff"] ;
369 -> 373 ;
374 [label="mse = 0.0\nsamples = 1\nvalue = 1.0", fillcolor="#e58139"] ;
368 -> 374 ;
375 [label="aspecto <= 0.514\nmse = 0.009\nsamples = 2816\nvalue = 0.009", fillcolor="#fffefd"] ;
367 -> 375 ;
376 [label="aspecto <= 0.514\nmse = 0.024\nsamples = 148\nvalue = 0.024", fillcolor="#fefcfa"] ;
375 -> 376 ;
377 [label="aspecto <= 0.488\nmse = 0.016\nsamples = 147\nvalue = 0.016", fillcolor="#fffdfc"] ;
376 -> 377 ;
378 [label="mse = 0.0\nsamples = 112\nvalue = 0.0", fillcolor="#ffffff"] ;
377 -> 378 ;
379 [label="aspecto <= 0.49\nmse = 0.071\nsamples = 35\nvalue = 0.077", fillcolor="#fdf5f0"] ;
377 -> 379 ;
380 [label="mse = 0.0\nsamples = 1\nvalue = 1.0", fillcolor="#e58139"] ;
379 -> 380 ;
381 [label="pendiente <= 0.102\nmse = 0.038\nsamples = 34\nvalue = 0.04", fillcolor="#fefaf7"] ;
379 -> 381 ;
382 [label="mse = 0.0\nsamples = 30\nvalue = 0.0", fillcolor="#ffffff"] ;
381 -> 382 ;
383 [label="pendiente <= 0.116\nmse = 0.24\nsamples = 4\nvalue = 0.4", fillcolor="#f5cdb0"] ;
381 -> 383 ;
384 [label="mse = 0.0\nsamples = 1\nvalue = 1.0", fillcolor="#e58139"] ;
383 -> 384 ;
385 [label="mse = 0.0\nsamples = 3\nvalue = 0.0", fillcolor="#ffffff"] ;
383 -> 385 ;
386 [label="mse = 0.0\nsamples = 1\nvalue = 1.0", fillcolor="#e58139"] ;
376 -> 386 ;
387 [label="curvatura <= -0.204\nmse = 0.008\nsamples = 2668\nvalue = 0.008", fillcolor="#fffefd"] ;
375 -> 387 ;
388 [label="pendiente <= 0.105\nmse = 0.003\nsamples = 695\nvalue = 0.003", fillcolor="#fffffe"] ;
387 -> 388 ;
389 [label="mse = 0.0\nsamples = 536\nvalue = 0.0", fillcolor="#ffffff"] ;
388 -> 389 ;
390 [label="pendiente <= 0.107\nmse = 0.012\nsamples = 159\nvalue = 0.012", fillcolor="#fffdfd"] ;
388 -> 390 ;
391 [label="mse = 0.0\nsamples = 1\nvalue = 1.0", fillcolor="#e58139"] ;
390 -> 391 ;
392 [label="flujo_acum <= -0.09\nmse = 0.004\nsamples = 158\nvalue = 0.004", fillcolor="#fffefe"] ;
390 -> 392 ;
393 [label="pendiente <= 0.13\nmse = 0.037\nsamples = 15\nvalue = 0.038", fillcolor="#fefaf7"] ;
392 -> 393 ;
394 [label="pendiente <= 0.125\nmse = 0.188\nsamples = 3\nvalue = 0.25", fillcolor="#f8e0ce"] ;
393 -> 394 ;
395 [label="mse = 0.0\nsamples = 2\nvalue = 0.0", fillcolor="#ffffff"] ;
394 -> 395 ;
396 [label="mse = 0.0\nsamples = 1\nvalue = 1.0", fillcolor="#e58139"] ;
394 -> 396 ;
397 [label="mse = 0.0\nsamples = 12\nvalue = 0.0", fillcolor="#ffffff"] ;
393 -> 397 ;
398 [label="mse = 0.0\nsamples = 143\nvalue = 0.0", fillcolor="#ffffff"] ;
392 -> 398 ;
399 [label="curvatura <= -0.203\nmse = 0.01\nsamples = 1973\nvalue = 0.01", fillcolor="#fffefd"] ;
387 -> 399 ;
400 [label="mse = 0.0\nsamples = 1\nvalue = 1.0", fillcolor="#e58139"] ;
399 -> 400 ;
401 [label="curvatura <= 0.247\nmse = 0.01\nsamples = 1972\nvalue = 0.01", fillcolor="#fffefd"] ;
399 -> 401 ;
402 [label="curvatura <= 0.246\nmse = 0.016\nsamples = 912\nvalue = 0.016", fillcolor="#fffdfc"] ;
401 -> 402 ;
403 [label="flujo_acum <= -0.09\nmse = 0.014\nsamples = 911\nvalue = 0.014", fillcolor="#fffdfc"] ;
402 -> 403 ;
404 [label="curvatura <= 0.134\nmse = 0.027\nsamples = 240\nvalue = 0.028", fillcolor="#fefcfa"] ;
403 -> 404 ;
405 [label="curvatura <= -0.178\nmse = 0.008\nsamples = 155\nvalue = 0.009", fillcolor="#fffefd"] ;
404 -> 405 ;
406 [label="aspecto <= 1.284\nmse = 0.099\nsamples = 5\nvalue = 0.111", fillcolor="#fcf1e9"] ;
405 -> 406 ;
407 [label="mse = 0.0\nsamples = 4\nvalue = 0.0", fillcolor="#ffffff"] ;
406 -> 407 ;
408 [label="mse = 0.0\nsamples = 1\nvalue = 1.0", fillcolor="#e58139"] ;
406 -> 408 ;
409 [label="pendiente <= 0.103\nmse = 0.004\nsamples = 150\nvalue = 0.004", fillcolor="#fffefe"] ;
405 -> 409 ;
410 [label="mse = 0.0\nsamples = 127\nvalue = 0.0", fillcolor="#ffffff"] ;
409 -> 410 ;
411 [label="pendiente <= 0.112\nmse = 0.03\nsamples = 23\nvalue = 0.031", fillcolor="#fefbf9"] ;
409 -> 411 ;
412 [label="mse = 0.0\nsamples = 1\nvalue = 1.0", fillcolor="#e58139"] ;
411 -> 412 ;
413 [label="mse = 0.0\nsamples = 22\nvalue = 0.0", fillcolor="#ffffff"] ;
411 -> 413 ;
414 [label="curvatura <= 0.135\nmse = 0.058\nsamples = 85\nvalue = 0.062", fillcolor="#fdf7f3"] ;
404 -> 414 ;
415 [label="mse = 0.0\nsamples = 1\nvalue = 1.0", fillcolor="#e58139"] ;
414 -> 415 ;
416 [label="pendiente <= -0.168\nmse = 0.031\nsamples = 84\nvalue = 0.032", fillcolor="#fefbf9"] ;
414 -> 416 ;
417 [label="pendiente <= -0.175\nmse = 0.126\nsamples = 14\nvalue = 0.148", fillcolor="#fbece2"] ;
416 -> 417 ;
418 [label="aspecto <= 1.161\nmse = 0.04\nsamples = 13\nvalue = 0.042", fillcolor="#fefaf7"] ;
417 -> 418 ;
419 [label="mse = 0.0\nsamples = 8\nvalue = 0.0", fillcolor="#ffffff"] ;
418 -> 419 ;
420 [label="aspecto <= 1.194\nmse = 0.083\nsamples = 5\nvalue = 0.091", fillcolor="#fdf4ed"] ;
418 -> 420 ;
421 [label="mse = 0.0\nsamples = 1\nvalue = 1.0", fillcolor="#e58139"] ;
420 -> 421 ;
422 [label="mse = 0.0\nsamples = 4\nvalue = 0.0", fillcolor="#ffffff"] ;
420 -> 422 ;
423 [label="mse = 0.0\nsamples = 1\nvalue = 1.0", fillcolor="#e58139"] ;
417 -> 423 ;
424 [label="mse = 0.0\nsamples = 70\nvalue = 0.0", fillcolor="#ffffff"] ;
416 -> 424 ;
425 [label="curvatura <= -0.027\nmse = 0.009\nsamples = 671\nvalue = 0.009", fillcolor="#fffefd"] ;
403 -> 425 ;
426 [label="curvatura <= -0.027\nmse = 0.021\nsamples = 275\nvalue = 0.021", fillcolor="#fefcfb"] ;
425 -> 426 ;
427 [label="curvatura <= -0.08\nmse = 0.014\nsamples = 274\nvalue = 0.014", fillcolor="#fffdfc"] ;
426 -> 427 ;
428 [label="pendiente <= -0.12\nmse = 0.006\nsamples = 210\nvalue = 0.006", fillcolor="#fffefe"] ;
427 -> 428 ;
429 [label="pendiente <= -0.123\nmse = 0.024\nsamples = 55\nvalue = 0.024", fillcolor="#fefcfa"] ;
428 -> 429 ;
430 [label="mse = 0.0\nsamples = 54\nvalue = 0.0", fillcolor="#ffffff"] ;
429 -> 430 ;
431 [label="mse = 0.0\nsamples = 1\nvalue = 1.0", fillcolor="#e58139"] ;
429 -> 431 ;
432 [label="mse = 0.0\nsamples = 155\nvalue = 0.0", fillcolor="#ffffff"] ;
428 -> 432 ;
433 [label="curvatura <= -0.079\nmse = 0.04\nsamples = 64\nvalue = 0.042", fillcolor="#fefaf7"] ;
427 -> 433 ;
434 [label="mse = 0.0\nsamples = 1\nvalue = 1.0", fillcolor="#e58139"] ;
433 -> 434 ;
435 [label="aspecto <= 0.572\nmse = 0.031\nsamples = 63\nvalue = 0.032", fillcolor="#fefbf9"] ;
433 -> 435 ;
436 [label="aspecto <= 0.538\nmse = 0.25\nsamples = 2\nvalue = 0.5", fillcolor="#f2c09c"] ;
435 -> 436 ;
437 [label="mse = 0.0\nsamples = 1\nvalue = 0.0", fillcolor="#ffffff"] ;
436 -> 437 ;
438 [label="mse = 0.0\nsamples = 1\nvalue = 1.0", fillcolor="#e58139"] ;
436 -> 438 ;
439 [label="flujo_acum <= -0.086\nmse = 0.021\nsamples = 61\nvalue = 0.022", fillcolor="#fefcfb"] ;
435 -> 439 ;
440 [label="aspecto <= 0.725\nmse = 0.011\nsamples = 57\nvalue = 0.011", fillcolor="#fffefd"] ;
439 -> 440 ;
441 [label="curvatura <= -0.068\nmse = 0.083\nsamples = 7\nvalue = 0.091", fillcolor="#fdf4ed"] ;
440 -> 441 ;
442 [label="mse = 0.0\nsamples = 1\nvalue = 1.0", fillcolor="#e58139"] ;
441 -> 442 ;
443 [label="mse = 0.0\nsamples = 6\nvalue = 0.0", fillcolor="#ffffff"] ;
441 -> 443 ;
444 [label="mse = 0.0\nsamples = 50\nvalue = 0.0", fillcolor="#ffffff"] ;
440 -> 444 ;
445 [label="pendiente <= -0.008\nmse = 0.188\nsamples = 4\nvalue = 0.25", fillcolor="#f8e0ce"] ;
439 -> 445 ;
446 [label="mse = 0.0\nsamples = 3\nvalue = 0.0", fillcolor="#ffffff"] ;
445 -> 446 ;
447 [label="mse = 0.0\nsamples = 1\nvalue = 1.0", fillcolor="#e58139"] ;
445 -> 447 ;
448 [label="mse = 0.0\nsamples = 1\nvalue = 1.0", fillcolor="#e58139"] ;
426 -> 448 ;
449 [label="aspecto <= 1.333\nmse = 0.002\nsamples = 396\nvalue = 0.002", fillcolor="#ffffff"] ;
425 -> 449 ;
450 [label="mse = 0.0\nsamples = 330\nvalue = 0.0", fillcolor="#ffffff"] ;
449 -> 450 ;
451 [label="aspecto <= 1.335\nmse = 0.009\nsamples = 66\nvalue = 0.009", fillcolor="#fffefd"] ;
449 -> 451 ;
452 [label="mse = 0.0\nsamples = 1\nvalue = 1.0", fillcolor="#e58139"] ;
451 -> 452 ;
453 [label="mse = 0.0\nsamples = 65\nvalue = 0.0", fillcolor="#ffffff"] ;
451 -> 453 ;
454 [label="mse = 0.0\nsamples = 1\nvalue = 1.0", fillcolor="#e58139"] ;
402 -> 454 ;
455 [label="pendiente <= -0.198\nmse = 0.005\nsamples = 1060\nvalue = 0.005", fillcolor="#fffefe"] ;
401 -> 455 ;
456 [label="pendiente <= -0.199\nmse = 0.017\nsamples = 114\nvalue = 0.017", fillcolor="#fffdfc"] ;
455 -> 456 ;
457 [label="flujo_acum <= -0.087\nmse = 0.012\nsamples = 113\nvalue = 0.012", fillcolor="#fffefd"] ;
456 -> 457 ;
458 [label="aspecto <= 0.606\nmse = 0.006\nsamples = 110\nvalue = 0.006", fillcolor="#fffefe"] ;
457 -> 458 ;
459 [label="pendiente <= -0.214\nmse = 0.139\nsamples = 6\nvalue = 0.167", fillcolor="#fbeade"] ;
458 -> 459 ;
460 [label="mse = 0.0\nsamples = 5\nvalue = 0.0", fillcolor="#ffffff"] ;
459 -> 460 ;
461 [label="mse = 0.0\nsamples = 1\nvalue = 1.0", fillcolor="#e58139"] ;
459 -> 461 ;
462 [label="mse = 0.0\nsamples = 104\nvalue = 0.0", fillcolor="#ffffff"] ;
458 -> 462 ;
463 [label="curvatura <= 0.561\nmse = 0.188\nsamples = 3\nvalue = 0.25", fillcolor="#f8e0ce"] ;
457 -> 463 ;
464 [label="mse = 0.0\nsamples = 1\nvalue = 1.0", fillcolor="#e58139"] ;
463 -> 464 ;
465 [label="mse = 0.0\nsamples = 2\nvalue = 0.0", fillcolor="#ffffff"] ;
463 -> 465 ;
466 [label="mse = 0.0\nsamples = 1\nvalue = 1.0", fillcolor="#e58139"] ;
456 -> 466 ;
467 [label="pendiente <= 0.173\nmse = 0.003\nsamples = 946\nvalue = 0.003", fillcolor="#fffffe"] ;
455 -> 467 ;
468 [label="aspecto <= 0.865\nmse = 0.003\nsamples = 920\nvalue = 0.003", fillcolor="#fffffe"] ;
467 -> 468 ;
469 [label="aspecto <= 0.864\nmse = 0.008\nsamples = 254\nvalue = 0.008", fillcolor="#fffefd"] ;
468 -> 469 ;
470 [label="aspecto <= 0.851\nmse = 0.005\nsamples = 253\nvalue = 0.005", fillcolor="#fffefe"] ;
469 -> 470 ;
471 [label="pendiente <= 0.136\nmse = 0.003\nsamples = 242\nvalue = 0.003", fillcolor="#fffffe"] ;
470 -> 471 ;
472 [label="mse = 0.0\nsamples = 210\nvalue = 0.0", fillcolor="#ffffff"] ;
471 -> 472 ;
473 [label="pendiente <= 0.138\nmse = 0.019\nsamples = 32\nvalue = 0.019", fillcolor="#fffdfb"] ;
471 -> 473 ;
474 [label="mse = 0.0\nsamples = 1\nvalue = 1.0", fillcolor="#e58139"] ;
473 -> 474 ;
475 [label="mse = 0.0\nsamples = 31\nvalue = 0.0", fillcolor="#ffffff"] ;
473 -> 475 ;
476 [label="aspecto <= 0.853\nmse = 0.062\nsamples = 11\nvalue = 0.067", fillcolor="#fdf7f2"] ;
470 -> 476 ;
477 [label="mse = 0.0\nsamples = 1\nvalue = 1.0", fillcolor="#e58139"] ;
476 -> 477 ;
478 [label="mse = 0.0\nsamples = 10\nvalue = 0.0", fillcolor="#ffffff"] ;
476 -> 478 ;
479 [label="mse = 0.0\nsamples = 1\nvalue = 1.0", fillcolor="#e58139"] ;
469 -> 479 ;
480 [label="curvatura <= 0.669\nmse = 0.001\nsamples = 666\nvalue = 0.001", fillcolor="#ffffff"] ;
468 -> 480 ;
481 [label="mse = 0.0\nsamples = 424\nvalue = 0.0", fillcolor="#ffffff"] ;
480 -> 481 ;
482 [label="curvatura <= 0.67\nmse = 0.003\nsamples = 242\nvalue = 0.003", fillcolor="#fffffe"] ;
480 -> 482 ;
483 [label="mse = 0.0\nsamples = 1\nvalue = 1.0", fillcolor="#e58139"] ;
482 -> 483 ;
484 [label="mse = 0.0\nsamples = 241\nvalue = 0.0", fillcolor="#ffffff"] ;
482 -> 484 ;
485 [label="pendiente <= 0.173\nmse = 0.023\nsamples = 26\nvalue = 0.023", fillcolor="#fefcfa"] ;
467 -> 485 ;
486 [label="mse = 0.0\nsamples = 1\nvalue = 1.0", fillcolor="#e58139"] ;
485 -> 486 ;
487 [label="mse = 0.0\nsamples = 25\nvalue = 0.0", fillcolor="#ffffff"] ;
485 -> 487 ;
488 [label="curvatura <= 0.058\nmse = 0.001\nsamples = 677\nvalue = 0.001", fillcolor="#ffffff"] ;
298 -> 488 ;
489 [label="mse = 0.0\nsamples = 588\nvalue = 0.0", fillcolor="#ffffff"] ;
488 -> 489 ;
490 [label="curvatura <= 0.061\nmse = 0.007\nsamples = 89\nvalue = 0.007", fillcolor="#fffefe"] ;
488 -> 490 ;
491 [label="mse = 0.0\nsamples = 1\nvalue = 1.0", fillcolor="#e58139"] ;
490 -> 491 ;
492 [label="mse = 0.0\nsamples = 88\nvalue = 0.0", fillcolor="#ffffff"] ;
490 -> 492 ;
493 [label="aspecto <= 1.4\nmse = 0.032\nsamples = 104\nvalue = 0.033", fillcolor="#fefbf8"] ;
297 -> 493 ;
494 [label="mse = 0.0\nsamples = 1\nvalue = 1.0", fillcolor="#e58139"] ;
493 -> 494 ;
495 [label="pendiente <= 0.038\nmse = 0.02\nsamples = 103\nvalue = 0.02", fillcolor="#fefcfb"] ;
493 -> 495 ;
496 [label="mse = 0.0\nsamples = 57\nvalue = 0.0", fillcolor="#ffffff"] ;
495 -> 496 ;
497 [label="pendiente <= 0.047\nmse = 0.045\nsamples = 46\nvalue = 0.048", fillcolor="#fef9f6"] ;
495 -> 497 ;
498 [label="mse = 0.0\nsamples = 1\nvalue = 1.0", fillcolor="#e58139"] ;
497 -> 498 ;
499 [label="curvatura <= -1.487\nmse = 0.016\nsamples = 45\nvalue = 0.016", fillcolor="#fffdfc"] ;
497 -> 499 ;
500 [label="pendiente <= 0.122\nmse = 0.16\nsamples = 3\nvalue = 0.2", fillcolor="#fae6d7"] ;
499 -> 500 ;
501 [label="mse = 0.0\nsamples = 1\nvalue = 1.0", fillcolor="#e58139"] ;
500 -> 501 ;
502 [label="mse = 0.0\nsamples = 2\nvalue = 0.0", fillcolor="#ffffff"] ;
500 -> 502 ;
503 [label="mse = 0.0\nsamples = 42\nvalue = 0.0", fillcolor="#ffffff"] ;
499 -> 503 ;
504 [label="curvatura <= 1.048\nmse = 0.016\nsamples = 1325\nvalue = 0.016", fillcolor="#fffdfc"] ;
196 -> 504 ;
505 [label="mse = 0.0\nsamples = 1\nvalue = 1.0", fillcolor="#e58139"] ;
504 -> 505 ;
506 [label="curvatura <= 1.149\nmse = 0.014\nsamples = 1324\nvalue = 0.014", fillcolor="#fffdfc"] ;
504 -> 506 ;
507 [label="curvatura <= 1.149\nmse = 0.038\nsamples = 167\nvalue = 0.04", fillcolor="#fefaf7"] ;
506 -> 507 ;
508 [label="aspecto <= 1.403\nmse = 0.018\nsamples = 166\nvalue = 0.019", fillcolor="#fffdfb"] ;
507 -> 508 ;
509 [label="pendiente <= -0.239\nmse = 0.015\nsamples = 164\nvalue = 0.015", fillcolor="#fffdfc"] ;
508 -> 509 ;
510 [label="pendiente <= -0.24\nmse = 0.029\nsamples = 85\nvalue = 0.03", fillcolor="#fefbf9"] ;
509 -> 510 ;
511 [label="curvatura <= 1.142\nmse = 0.022\nsamples = 84\nvalue = 0.023", fillcolor="#fefcfa"] ;
510 -> 511 ;
512 [label="aspecto <= 1.245\nmse = 0.016\nsamples = 78\nvalue = 0.016", fillcolor="#fffdfc"] ;
511 -> 512 ;
513 [label="pendiente <= -0.292\nmse = 0.009\nsamples = 68\nvalue = 0.009", fillcolor="#fffefd"] ;
512 -> 513 ;
514 [label="mse = 0.0\nsamples = 59\nvalue = 0.0", fillcolor="#ffffff"] ;
513 -> 514 ;
515 [label="pendiente <= -0.289\nmse = 0.062\nsamples = 9\nvalue = 0.067", fillcolor="#fdf7f2"] ;
513 -> 515 ;
516 [label="mse = 0.0\nsamples = 1\nvalue = 1.0", fillcolor="#e58139"] ;
515 -> 516 ;
517 [label="mse = 0.0\nsamples = 8\nvalue = 0.0", fillcolor="#ffffff"] ;
515 -> 517 ;
518 [label="aspecto <= 1.267\nmse = 0.062\nsamples = 10\nvalue = 0.067", fillcolor="#fdf7f2"] ;
512 -> 518 ;
519 [label="mse = 0.0\nsamples = 1\nvalue = 1.0", fillcolor="#e58139"] ;
518 -> 519 ;
520 [label="mse = 0.0\nsamples = 9\nvalue = 0.0", fillcolor="#ffffff"] ;
518 -> 520 ;
521 [label="pendiente <= -0.559\nmse = 0.109\nsamples = 6\nvalue = 0.125", fillcolor="#fcefe6"] ;
511 -> 521 ;
522 [label="mse = 0.0\nsamples = 1\nvalue = 1.0", fillcolor="#e58139"] ;
521 -> 522 ;
523 [label="mse = 0.0\nsamples = 5\nvalue = 0.0", fillcolor="#ffffff"] ;
521 -> 523 ;
524 [label="mse = 0.0\nsamples = 1\nvalue = 1.0", fillcolor="#e58139"] ;
510 -> 524 ;
525 [label="mse = 0.0\nsamples = 79\nvalue = 0.0", fillcolor="#ffffff"] ;
509 -> 525 ;
526 [label="pendiente <= -0.345\nmse = 0.25\nsamples = 2\nvalue = 0.5", fillcolor="#f2c09c"] ;
508 -> 526 ;
527 [label="mse = 0.0\nsamples = 1\nvalue = 0.0", fillcolor="#ffffff"] ;
526 -> 527 ;
528 [label="mse = 0.0\nsamples = 1\nvalue = 1.0", fillcolor="#e58139"] ;
526 -> 528 ;
529 [label="mse = 0.0\nsamples = 1\nvalue = 1.0", fillcolor="#e58139"] ;
507 -> 529 ;
530 [label="pendiente <= -0.763\nmse = 0.01\nsamples = 1157\nvalue = 0.01", fillcolor="#fffefd"] ;
506 -> 530 ;
531 [label="pendiente <= -0.765\nmse = 0.083\nsamples = 14\nvalue = 0.091", fillcolor="#fdf4ed"] ;
530 -> 531 ;
532 [label="mse = 0.0\nsamples = 13\nvalue = 0.0", fillcolor="#ffffff"] ;
531 -> 532 ;
533 [label="mse = 0.0\nsamples = 1\nvalue = 1.0", fillcolor="#e58139"] ;
531 -> 533 ;
534 [label="aspecto <= 0.487\nmse = 0.009\nsamples = 1143\nvalue = 0.009", fillcolor="#fffefd"] ;
530 -> 534 ;
535 [label="aspecto <= 0.485\nmse = 0.018\nsamples = 422\nvalue = 0.018", fillcolor="#fffdfb"] ;
534 -> 535 ;
536 [label="aspecto <= 0.471\nmse = 0.016\nsamples = 421\nvalue = 0.017", fillcolor="#fffdfc"] ;
535 -> 536 ;
537 [label="pendiente <= -0.492\nmse = 0.014\nsamples = 414\nvalue = 0.014", fillcolor="#fffdfc"] ;
536 -> 537 ;
538 [label="pendiente <= -0.495\nmse = 0.035\nsamples = 102\nvalue = 0.036", fillcolor="#fefaf8"] ;
537 -> 538 ;
539 [label="curvatura <= 1.382\nmse = 0.018\nsamples = 101\nvalue = 0.018", fillcolor="#fffdfb"] ;
538 -> 539 ;
540 [label="curvatura <= 1.375\nmse = 0.053\nsamples = 33\nvalue = 0.057", fillcolor="#fef8f4"] ;
539 -> 540 ;
541 [label="mse = 0.0\nsamples = 32\nvalue = 0.0", fillcolor="#ffffff"] ;
540 -> 541 ;
542 [label="mse = 0.0\nsamples = 1\nvalue = 1.0", fillcolor="#e58139"] ;
540 -> 542 ;
543 [label="mse = 0.0\nsamples = 68\nvalue = 0.0", fillcolor="#ffffff"] ;
539 -> 543 ;
544 [label="mse = 0.0\nsamples = 1\nvalue = 1.0", fillcolor="#e58139"] ;
538 -> 544 ;
545 [label="pendiente <= 0.056\nmse = 0.006\nsamples = 312\nvalue = 0.006", fillcolor="#fffefe"] ;
537 -> 545 ;
546 [label="mse = 0.0\nsamples = 264\nvalue = 0.0", fillcolor="#ffffff"] ;
545 -> 546 ;
547 [label="pendiente <= 0.059\nmse = 0.037\nsamples = 48\nvalue = 0.038", fillcolor="#fefaf7"] ;
545 -> 547 ;
548 [label="mse = 0.0\nsamples = 1\nvalue = 1.0", fillcolor="#e58139"] ;
547 -> 548 ;
549 [label="aspecto <= 0.299\nmse = 0.025\nsamples = 47\nvalue = 0.026", fillcolor="#fefcfa"] ;
547 -> 549 ;
550 [label="mse = 0.0\nsamples = 41\nvalue = 0.0", fillcolor="#ffffff"] ;
549 -> 550 ;
551 [label="aspecto <= 0.328\nmse = 0.16\nsamples = 6\nvalue = 0.2", fillcolor="#fae6d7"] ;
549 -> 551 ;
552 [label="mse = 0.0\nsamples = 2\nvalue = 1.0", fillcolor="#e58139"] ;
551 -> 552 ;
553 [label="mse = 0.0\nsamples = 4\nvalue = 0.0", fillcolor="#ffffff"] ;
551 -> 553 ;
554 [label="aspecto <= 0.473\nmse = 0.139\nsamples = 7\nvalue = 0.167", fillcolor="#fbeade"] ;
536 -> 554 ;
555 [label="mse = 0.0\nsamples = 1\nvalue = 1.0", fillcolor="#e58139"] ;
554 -> 555 ;
556 [label="mse = 0.0\nsamples = 6\nvalue = 0.0", fillcolor="#ffffff"] ;
554 -> 556 ;
557 [label="mse = 0.0\nsamples = 1\nvalue = 1.0", fillcolor="#e58139"] ;
535 -> 557 ;
558 [label="curvatura <= 1.774\nmse = 0.004\nsamples = 721\nvalue = 0.004", fillcolor="#fffefe"] ;
534 -> 558 ;
559 [label="aspecto <= 0.633\nmse = 0.001\nsamples = 524\nvalue = 0.001", fillcolor="#ffffff"] ;
558 -> 559 ;
560 [label="aspecto <= 0.632\nmse = 0.009\nsamples = 69\nvalue = 0.009", fillcolor="#fffefd"] ;
559 -> 560 ;
561 [label="mse = 0.0\nsamples = 68\nvalue = 0.0", fillcolor="#ffffff"] ;
560 -> 561 ;
562 [label="mse = 0.0\nsamples = 1\nvalue = 1.0", fillcolor="#e58139"] ;
560 -> 562 ;
563 [label="mse = 0.0\nsamples = 455\nvalue = 0.0", fillcolor="#ffffff"] ;
559 -> 563 ;
564 [label="curvatura <= 1.776\nmse = 0.013\nsamples = 197\nvalue = 0.013", fillcolor="#fffdfc"] ;
558 -> 564 ;
565 [label="mse = 0.0\nsamples = 1\nvalue = 1.0", fillcolor="#e58139"] ;
564 -> 565 ;
566 [label="pendiente <= -0.271\nmse = 0.01\nsamples = 196\nvalue = 0.01", fillcolor="#fffefd"] ;
564 -> 566 ;
567 [label="mse = 0.0\nsamples = 96\nvalue = 0.0", fillcolor="#ffffff"] ;
566 -> 567 ;
568 [label="pendiente <= -0.266\nmse = 0.019\nsamples = 100\nvalue = 0.019", fillcolor="#fffdfb"] ;
566 -> 568 ;
569 [label="mse = 0.0\nsamples = 1\nvalue = 1.0", fillcolor="#e58139"] ;
568 -> 569 ;
570 [label="aspecto <= 1.361\nmse = 0.013\nsamples = 99\nvalue = 0.013", fillcolor="#fffdfc"] ;
568 -> 570 ;
571 [label="pendiente <= 0.035\nmse = 0.007\nsamples = 87\nvalue = 0.007", fillcolor="#fffefe"] ;
570 -> 571 ;
572 [label="mse = 0.0\nsamples = 59\nvalue = 0.0", fillcolor="#ffffff"] ;
571 -> 572 ;
573 [label="pendiente <= 0.042\nmse = 0.02\nsamples = 28\nvalue = 0.02", fillcolor="#fefcfb"] ;
571 -> 573 ;
574 [label="mse = 0.0\nsamples = 1\nvalue = 1.0", fillcolor="#e58139"] ;
573 -> 574 ;
575 [label="mse = 0.0\nsamples = 27\nvalue = 0.0", fillcolor="#ffffff"] ;
573 -> 575 ;
576 [label="aspecto <= 1.367\nmse = 0.05\nsamples = 12\nvalue = 0.053", fillcolor="#fef8f5"] ;
570 -> 576 ;
577 [label="mse = 0.0\nsamples = 1\nvalue = 1.0", fillcolor="#e58139"] ;
576 -> 577 ;
578 [label="mse = 0.0\nsamples = 11\nvalue = 0.0", fillcolor="#ffffff"] ;
576 -> 578 ;
579 [label="pendiente <= 0.181\nmse = 0.016\nsamples = 11268\nvalue = 0.017", fillcolor="#fffdfc"] ;
1 -> 579 ;
580 [label="mse = 0.0\nsamples = 1\nvalue = 1.0", fillcolor="#e58139"] ;
579 -> 580 ;
581 [label="aspecto <= -1.376\nmse = 0.016\nsamples = 11267\nvalue = 0.017", fillcolor="#fffdfc"] ;
579 -> 581 ;
582 [label="aspecto <= -1.376\nmse = 0.026\nsamples = 910\nvalue = 0.027", fillcolor="#fefcfa"] ;
581 -> 582 ;
583 [label="pendiente <= 0.618\nmse = 0.023\nsamples = 909\nvalue = 0.024", fillcolor="#fefcfa"] ;
582 -> 583 ;
584 [label="aspecto <= -1.377\nmse = 0.02\nsamples = 898\nvalue = 0.021", fillcolor="#fefcfb"] ;
583 -> 584 ;
585 [label="curvatura <= -1.38\nmse = 0.019\nsamples = 890\nvalue = 0.019", fillcolor="#fefdfb"] ;
584 -> 585 ;
586 [label="curvatura <= -1.393\nmse = 0.059\nsamples = 60\nvalue = 0.062", fillcolor="#fdf7f3"] ;
585 -> 586 ;
587 [label="flujo_acum <= -0.057\nmse = 0.05\nsamples = 59\nvalue = 0.053", fillcolor="#fef8f5"] ;
586 -> 587 ;
588 [label="mse = 0.0\nsamples = 39\nvalue = 0.0", fillcolor="#ffffff"] ;
587 -> 588 ;
589 [label="flujo_acum <= -0.054\nmse = 0.132\nsamples = 20\nvalue = 0.156", fillcolor="#fbebe0"] ;
587 -> 589 ;
590 [label="mse = 0.0\nsamples = 1\nvalue = 1.0", fillcolor="#e58139"] ;
589 -> 590 ;
591 [label="pendiente <= 0.271\nmse = 0.064\nsamples = 19\nvalue = 0.069", fillcolor="#fdf6f1"] ;
589 -> 591 ;
592 [label="pendiente <= 0.257\nmse = 0.222\nsamples = 5\nvalue = 0.333", fillcolor="#f6d5bd"] ;
591 -> 592 ;
593 [label="mse = 0.0\nsamples = 4\nvalue = 0.0", fillcolor="#ffffff"] ;
592 -> 593 ;
594 [label="mse = 0.0\nsamples = 1\nvalue = 1.0", fillcolor="#e58139"] ;
592 -> 594 ;
595 [label="mse = 0.0\nsamples = 14\nvalue = 0.0", fillcolor="#ffffff"] ;
591 -> 595 ;
596 [label="mse = 0.0\nsamples = 1\nvalue = 1.0", fillcolor="#e58139"] ;
586 -> 596 ;
597 [label="pendiente <= 0.589\nmse = 0.016\nsamples = 830\nvalue = 0.016", fillcolor="#fffdfc"] ;
585 -> 597 ;
598 [label="curvatura <= -0.447\nmse = 0.013\nsamples = 777\nvalue = 0.013", fillcolor="#fffdfc"] ;
597 -> 598 ;
599 [label="curvatura <= -0.47\nmse = 0.029\nsamples = 160\nvalue = 0.03", fillcolor="#fefbf9"] ;
598 -> 599 ;
600 [label="pendiente <= 0.563\nmse = 0.017\nsamples = 157\nvalue = 0.017", fillcolor="#fffdfc"] ;
599 -> 600 ;
601 [label="aspecto <= -1.384\nmse = 0.009\nsamples = 146\nvalue = 0.009", fillcolor="#fffefd"] ;
600 -> 601 ;
602 [label="flujo_acum <= -0.09\nmse = 0.005\nsamples = 139\nvalue = 0.005", fillcolor="#fffefe"] ;
601 -> 602 ;
603 [label="aspecto <= -1.514\nmse = 0.042\nsamples = 17\nvalue = 0.043", fillcolor="#fefaf6"] ;
602 -> 603 ;
604 [label="curvatura <= -0.636\nmse = 0.25\nsamples = 2\nvalue = 0.5", fillcolor="#f2c09c"] ;
603 -> 604 ;
605 [label="mse = 0.0\nsamples = 1\nvalue = 1.0", fillcolor="#e58139"] ;
604 -> 605 ;
606 [label="mse = 0.0\nsamples = 1\nvalue = 0.0", fillcolor="#ffffff"] ;
604 -> 606 ;
607 [label="mse = 0.0\nsamples = 15\nvalue = 0.0", fillcolor="#ffffff"] ;
603 -> 607 ;
608 [label="mse = 0.0\nsamples = 122\nvalue = 0.0", fillcolor="#ffffff"] ;
602 -> 608 ;
609 [label="aspecto <= -1.382\nmse = 0.122\nsamples = 7\nvalue = 0.143", fillcolor="#fbede3"] ;
601 -> 609 ;
610 [label="mse = 0.0\nsamples = 1\nvalue = 1.0", fillcolor="#e58139"] ;
609 -> 610 ;
611 [label="mse = 0.0\nsamples = 6\nvalue = 0.0", fillcolor="#ffffff"] ;
609 -> 611 ;
612 [label="pendiente <= 0.57\nmse = 0.122\nsamples = 11\nvalue = 0.143", fillcolor="#fbede3"] ;
600 -> 612 ;
613 [label="mse = 0.0\nsamples = 2\nvalue = 1.0", fillcolor="#e58139"] ;
612 -> 613 ;
614 [label="mse = 0.0\nsamples = 9\nvalue = 0.0", fillcolor="#ffffff"] ;
612 -> 614 ;
615 [label="flujo_acum <= -0.078\nmse = 0.188\nsamples = 3\nvalue = 0.75", fillcolor="#eca06a"] ;
599 -> 615 ;
616 [label="mse = 0.0\nsamples = 2\nvalue = 1.0", fillcolor="#e58139"] ;
615 -> 616 ;
617 [label="mse = 0.0\nsamples = 1\nvalue = 0.0", fillcolor="#ffffff"] ;
615 -> 617 ;
618 [label="aspecto <= -1.471\nmse = 0.009\nsamples = 617\nvalue = 0.009", fillcolor="#fffefd"] ;
598 -> 618 ;
619 [label="mse = 0.0\nsamples = 234\nvalue = 0.0", fillcolor="#ffffff"] ;
618 -> 619 ;
620 [label="aspecto <= -1.47\nmse = 0.015\nsamples = 383\nvalue = 0.015", fillcolor="#fffdfc"] ;
618 -> 620 ;
621 [label="mse = 0.0\nsamples = 1\nvalue = 1.0", fillcolor="#e58139"] ;
620 -> 621 ;
622 [label="curvatura <= 1.219\nmse = 0.011\nsamples = 382\nvalue = 0.012", fillcolor="#fffefd"] ;
620 -> 622 ;
623 [label="pendiente <= 0.49\nmse = 0.009\nsamples = 346\nvalue = 0.009", fillcolor="#fffefd"] ;
622 -> 623 ;
624 [label="aspecto <= -1.453\nmse = 0.005\nsamples = 258\nvalue = 0.005", fillcolor="#fffefe"] ;
623 -> 624 ;
625 [label="aspecto <= -1.453\nmse = 0.024\nsamples = 53\nvalue = 0.024", fillcolor="#fefcfa"] ;
624 -> 625 ;
626 [label="mse = 0.0\nsamples = 51\nvalue = 0.0", fillcolor="#ffffff"] ;
625 -> 626 ;
627 [label="mse = 0.0\nsamples = 2\nvalue = 1.0", fillcolor="#e58139"] ;
625 -> 627 ;
628 [label="mse = 0.0\nsamples = 205\nvalue = 0.0", fillcolor="#ffffff"] ;
624 -> 628 ;
629 [label="pendiente <= 0.491\nmse = 0.022\nsamples = 88\nvalue = 0.022", fillcolor="#fefcfb"] ;
623 -> 629 ;
630 [label="mse = 0.0\nsamples = 1\nvalue = 1.0", fillcolor="#e58139"] ;
629 -> 630 ;
631 [label="pendiente <= 0.513\nmse = 0.015\nsamples = 87\nvalue = 0.015", fillcolor="#fffdfc"] ;
629 -> 631 ;
632 [label="pendiente <= 0.512\nmse = 0.049\nsamples = 27\nvalue = 0.051", fillcolor="#fef9f5"] ;
631 -> 632 ;
633 [label="mse = 0.0\nsamples = 26\nvalue = 0.0", fillcolor="#ffffff"] ;
632 -> 633 ;
634 [label="mse = 0.0\nsamples = 1\nvalue = 1.0", fillcolor="#e58139"] ;
632 -> 634 ;
635 [label="mse = 0.0\nsamples = 60\nvalue = 0.0", fillcolor="#ffffff"] ;
631 -> 635 ;
636 [label="curvatura <= 1.246\nmse = 0.038\nsamples = 36\nvalue = 0.04", fillcolor="#fefaf7"] ;
622 -> 636 ;
637 [label="mse = 0.0\nsamples = 1\nvalue = 1.0", fillcolor="#e58139"] ;
636 -> 637 ;
638 [label="curvatura <= 1.335\nmse = 0.02\nsamples = 35\nvalue = 0.02", fillcolor="#fefcfb"] ;
636 -> 638 ;
639 [label="curvatura <= 1.315\nmse = 0.188\nsamples = 4\nvalue = 0.25", fillcolor="#f8e0ce"] ;
638 -> 639 ;
640 [label="mse = 0.0\nsamples = 3\nvalue = 0.0", fillcolor="#ffffff"] ;
639 -> 640 ;
641 [label="mse = 0.0\nsamples = 1\nvalue = 1.0", fillcolor="#e58139"] ;
639 -> 641 ;
642 [label="mse = 0.0\nsamples = 31\nvalue = 0.0", fillcolor="#ffffff"] ;
638 -> 642 ;
643 [label="pendiente <= 0.594\nmse = 0.051\nsamples = 53\nvalue = 0.054", fillcolor="#fef8f4"] ;
597 -> 643 ;
644 [label="flujo_acum <= -0.09\nmse = 0.16\nsamples = 3\nvalue = 0.8", fillcolor="#ea9a61"] ;
643 -> 644 ;
645 [label="mse = 0.0\nsamples = 1\nvalue = 1.0", fillcolor="#e58139"] ;
644 -> 645 ;
646 [label="aspecto <= -1.455\nmse = 0.222\nsamples = 2\nvalue = 0.667", fillcolor="#eeab7b"] ;
644 -> 646 ;
647 [label="mse = 0.0\nsamples = 1\nvalue = 1.0", fillcolor="#e58139"] ;
646 -> 647 ;
648 [label="mse = 0.0\nsamples = 1\nvalue = 0.0", fillcolor="#ffffff"] ;
646 -> 648 ;
649 [label="curvatura <= -0.345\nmse = 0.011\nsamples = 50\nvalue = 0.011", fillcolor="#fffefd"] ;
643 -> 649 ;
650 [label="curvatura <= -0.366\nmse = 0.055\nsamples = 12\nvalue = 0.059", fillcolor="#fdf8f3"] ;
649 -> 650 ;
651 [label="mse = 0.0\nsamples = 11\nvalue = 0.0", fillcolor="#ffffff"] ;
650 -> 651 ;
652 [label="mse = 0.0\nsamples = 1\nvalue = 1.0", fillcolor="#e58139"] ;
650 -> 652 ;
653 [label="mse = 0.0\nsamples = 38\nvalue = 0.0", fillcolor="#ffffff"] ;
649 -> 653 ;
654 [label="aspecto <= -1.377\nmse = 0.122\nsamples = 8\nvalue = 0.143", fillcolor="#fbede3"] ;
584 -> 654 ;
655 [label="mse = 0.0\nsamples = 1\nvalue = 1.0", fillcolor="#e58139"] ;
654 -> 655 ;
656 [label="mse = 0.0\nsamples = 7\nvalue = 0.0", fillcolor="#ffffff"] ;
654 -> 656 ;
657 [label="flujo_acum <= -0.087\nmse = 0.194\nsamples = 11\nvalue = 0.263", fillcolor="#f8decb"] ;
583 -> 657 ;
658 [label="mse = 0.0\nsamples = 8\nvalue = 0.0", fillcolor="#ffffff"] ;
657 -> 658 ;
659 [label="curvatura <= -0.081\nmse = 0.139\nsamples = 3\nvalue = 0.833", fillcolor="#e9965a"] ;
657 -> 659 ;
660 [label="mse = 0.0\nsamples = 2\nvalue = 1.0", fillcolor="#e58139"] ;
659 -> 660 ;
661 [label="mse = 0.0\nsamples = 1\nvalue = 0.0", fillcolor="#ffffff"] ;
659 -> 661 ;
662 [label="mse = 0.0\nsamples = 1\nvalue = 1.0", fillcolor="#e58139"] ;
582 -> 662 ;
663 [label="aspecto <= 0.062\nmse = 0.015\nsamples = 10357\nvalue = 0.016", fillcolor="#fffdfc"] ;
581 -> 663 ;
664 [label="aspecto <= -1.102\nmse = 0.012\nsamples = 4967\nvalue = 0.012", fillcolor="#fffefd"] ;
663 -> 664 ;
665 [label="flujo_acum <= 0.016\nmse = 0.006\nsamples = 1270\nvalue = 0.006", fillcolor="#fffefe"] ;
664 -> 665 ;
666 [label="pendiente <= 0.449\nmse = 0.005\nsamples = 1231\nvalue = 0.005", fillcolor="#fffefe"] ;
665 -> 666 ;
667 [label="pendiente <= 0.227\nmse = 0.003\nsamples = 760\nvalue = 0.003", fillcolor="#fffffe"] ;
666 -> 667 ;
668 [label="pendiente <= 0.227\nmse = 0.009\nsamples = 148\nvalue = 0.009", fillcolor="#fffefd"] ;
667 -> 668 ;
669 [label="mse = 0.0\nsamples = 147\nvalue = 0.0", fillcolor="#ffffff"] ;
668 -> 669 ;
670 [label="mse = 0.0\nsamples = 1\nvalue = 1.0", fillcolor="#e58139"] ;
668 -> 670 ;
671 [label="curvatura <= -1.213\nmse = 0.001\nsamples = 612\nvalue = 0.001", fillcolor="#ffffff"] ;
667 -> 671 ;
672 [label="curvatura <= -1.229\nmse = 0.011\nsamples = 52\nvalue = 0.012", fillcolor="#fffefd"] ;
671 -> 672 ;
673 [label="mse = 0.0\nsamples = 51\nvalue = 0.0", fillcolor="#ffffff"] ;
672 -> 673 ;
674 [label="mse = 0.0\nsamples = 1\nvalue = 1.0", fillcolor="#e58139"] ;
672 -> 674 ;
675 [label="mse = 0.0\nsamples = 560\nvalue = 0.0", fillcolor="#ffffff"] ;
671 -> 675 ;
676 [label="pendiente <= 0.449\nmse = 0.009\nsamples = 471\nvalue = 0.009", fillcolor="#fffefd"] ;
666 -> 676 ;
677 [label="mse = 0.0\nsamples = 1\nvalue = 1.0", fillcolor="#e58139"] ;
676 -> 677 ;
678 [label="pendiente <= 0.455\nmse = 0.008\nsamples = 470\nvalue = 0.008", fillcolor="#fffefd"] ;
676 -> 678 ;
679 [label="pendiente <= 0.454\nmse = 0.122\nsamples = 9\nvalue = 0.143", fillcolor="#fbede3"] ;
678 -> 679 ;
680 [label="mse = 0.0\nsamples = 8\nvalue = 0.0", fillcolor="#ffffff"] ;
679 -> 680 ;
681 [label="mse = 0.0\nsamples = 1\nvalue = 1.0", fillcolor="#e58139"] ;
679 -> 681 ;
682 [label="curvatura <= 0.359\nmse = 0.005\nsamples = 461\nvalue = 0.005", fillcolor="#fffefe"] ;
678 -> 682 ;
683 [label="aspecto <= -1.33\nmse = 0.002\nsamples = 306\nvalue = 0.002", fillcolor="#ffffff"] ;
682 -> 683 ;
684 [label="aspecto <= -1.33\nmse = 0.014\nsamples = 46\nvalue = 0.014", fillcolor="#fffdfc"] ;
683 -> 684 ;
685 [label="mse = 0.0\nsamples = 45\nvalue = 0.0", fillcolor="#ffffff"] ;
684 -> 685 ;
686 [label="mse = 0.0\nsamples = 1\nvalue = 1.0", fillcolor="#e58139"] ;
684 -> 686 ;
687 [label="mse = 0.0\nsamples = 260\nvalue = 0.0", fillcolor="#ffffff"] ;
683 -> 687 ;
688 [label="curvatura <= 0.368\nmse = 0.011\nsamples = 155\nvalue = 0.011", fillcolor="#fffefd"] ;
682 -> 688 ;
689 [label="mse = 0.0\nsamples = 2\nvalue = 1.0", fillcolor="#e58139"] ;
688 -> 689 ;
690 [label="curvatura <= 0.478\nmse = 0.004\nsamples = 153\nvalue = 0.004", fillcolor="#fffffe"] ;
688 -> 690 ;
691 [label="curvatura <= 0.477\nmse = 0.024\nsamples = 24\nvalue = 0.025", fillcolor="#fefcfa"] ;
690 -> 691 ;
692 [label="mse = 0.0\nsamples = 23\nvalue = 0.0", fillcolor="#ffffff"] ;
691 -> 692 ;
693 [label="mse = 0.0\nsamples = 1\nvalue = 1.0", fillcolor="#e58139"] ;
691 -> 693 ;
694 [label="mse = 0.0\nsamples = 129\nvalue = 0.0", fillcolor="#ffffff"] ;
690 -> 694 ;
695 [label="flujo_acum <= 0.022\nmse = 0.03\nsamples = 39\nvalue = 0.031", fillcolor="#fefbf9"] ;
665 -> 695 ;
696 [label="mse = 0.0\nsamples = 1\nvalue = 1.0", fillcolor="#e58139"] ;
695 -> 696 ;
697 [label="mse = 0.0\nsamples = 38\nvalue = 0.0", fillcolor="#ffffff"] ;
695 -> 697 ;
698 [label="aspecto <= -1.102\nmse = 0.013\nsamples = 3697\nvalue = 0.014", fillcolor="#fffdfc"] ;
664 -> 698 ;
699 [label="mse = 0.0\nsamples = 1\nvalue = 1.0", fillcolor="#e58139"] ;
698 -> 699 ;
700 [label="aspecto <= -1.088\nmse = 0.013\nsamples = 3696\nvalue = 0.013", fillcolor="#fffdfc"] ;
698 -> 700 ;
701 [label="curvatura <= 0.863\nmse = 0.091\nsamples = 39\nvalue = 0.101", fillcolor="#fcf2eb"] ;
700 -> 701 ;
702 [label="mse = 0.0\nsamples = 31\nvalue = 0.0", fillcolor="#ffffff"] ;
701 -> 702 ;
703 [label="curvatura <= 0.867\nmse = 0.25\nsamples = 8\nvalue = 0.5", fillcolor="#f2c09c"] ;
701 -> 703 ;
704 [label="mse = 0.0\nsamples = 1\nvalue = 1.0", fillcolor="#e58139"] ;
703 -> 704 ;
705 [label="curvatura <= 1.137\nmse = 0.231\nsamples = 7\nvalue = 0.364", fillcolor="#f6d1b7"] ;
703 -> 705 ;
706 [label="mse = 0.0\nsamples = 3\nvalue = 0.0", fillcolor="#ffffff"] ;
705 -> 706 ;
707 [label="aspecto <= -1.095\nmse = 0.245\nsamples = 4\nvalue = 0.571", fillcolor="#f0b78e"] ;
705 -> 707 ;
708 [label="curvatura <= 1.616\nmse = 0.24\nsamples = 3\nvalue = 0.4", fillcolor="#f5cdb0"] ;
707 -> 708 ;
709 [label="mse = 0.0\nsamples = 1\nvalue = 1.0", fillcolor="#e58139"] ;
708 -> 709 ;
710 [label="mse = 0.0\nsamples = 2\nvalue = 0.0", fillcolor="#ffffff"] ;
708 -> 710 ;
711 [label="mse = 0.0\nsamples = 1\nvalue = 1.0", fillcolor="#e58139"] ;
707 -> 711 ;
712 [label="pendiente <= 0.337\nmse = 0.012\nsamples = 3657\nvalue = 0.012", fillcolor="#fffdfd"] ;
700 -> 712 ;
713 [label="pendiente <= 0.336\nmse = 0.016\nsamples = 1220\nvalue = 0.017", fillcolor="#fffdfc"] ;
712 -> 713 ;
714 [label="pendiente <= 0.332\nmse = 0.014\nsamples = 1219\nvalue = 0.014", fillcolor="#fffdfc"] ;
713 -> 714 ;
715 [label="pendiente <= 0.272\nmse = 0.013\nsamples = 1182\nvalue = 0.013", fillcolor="#fffdfc"] ;
714 -> 715 ;
716 [label="pendiente <= 0.272\nmse = 0.018\nsamples = 698\nvalue = 0.018", fillcolor="#fffdfb"] ;
715 -> 716 ;
717 [label="pendiente <= 0.207\nmse = 0.017\nsamples = 697\nvalue = 0.017", fillcolor="#fffdfc"] ;
716 -> 717 ;
718 [label="aspecto <= -1.02\nmse = 0.003\nsamples = 200\nvalue = 0.003", fillcolor="#fffffe"] ;
717 -> 718 ;
719 [label="aspecto <= -1.024\nmse = 0.033\nsamples = 20\nvalue = 0.034", fillcolor="#fefbf8"] ;
718 -> 719 ;
720 [label="mse = 0.0\nsamples = 19\nvalue = 0.0", fillcolor="#ffffff"] ;
719 -> 720 ;
721 [label="mse = 0.0\nsamples = 1\nvalue = 1.0", fillcolor="#e58139"] ;
719 -> 721 ;
722 [label="mse = 0.0\nsamples = 180\nvalue = 0.0", fillcolor="#ffffff"] ;
718 -> 722 ;
723 [label="pendiente <= 0.207\nmse = 0.022\nsamples = 497\nvalue = 0.023", fillcolor="#fefcfa"] ;
717 -> 723 ;
724 [label="mse = 0.0\nsamples = 1\nvalue = 1.0", fillcolor="#e58139"] ;
723 -> 724 ;
725 [label="aspecto <= -0.143\nmse = 0.019\nsamples = 496\nvalue = 0.019", fillcolor="#fefdfb"] ;
723 -> 725 ;
726 [label="pendiente <= 0.226\nmse = 0.015\nsamples = 453\nvalue = 0.015", fillcolor="#fffdfc"] ;
725 -> 726 ;
727 [label="pendiente <= 0.226\nmse = 0.037\nsamples = 115\nvalue = 0.039", fillcolor="#fefaf7"] ;
726 -> 727 ;
728 [label="aspecto <= -1.043\nmse = 0.022\nsamples = 114\nvalue = 0.023", fillcolor="#fefcfb"] ;
727 -> 728 ;
729 [label="aspecto <= -1.047\nmse = 0.139\nsamples = 5\nvalue = 0.167", fillcolor="#fbeade"] ;
728 -> 729 ;
730 [label="mse = 0.0\nsamples = 4\nvalue = 0.0", fillcolor="#ffffff"] ;
729 -> 730 ;
731 [label="mse = 0.0\nsamples = 1\nvalue = 1.0", fillcolor="#e58139"] ;
729 -> 731 ;
732 [label="curvatura <= 0.085\nmse = 0.017\nsamples = 109\nvalue = 0.018", fillcolor="#fffdfc"] ;
728 -> 732 ;
733 [label="mse = 0.0\nsamples = 61\nvalue = 0.0", fillcolor="#ffffff"] ;
732 -> 733 ;
734 [label="curvatura <= 0.104\nmse = 0.04\nsamples = 48\nvalue = 0.042", fillcolor="#fefaf7"] ;
732 -> 734 ;
735 [label="mse = 0.0\nsamples = 1\nvalue = 1.0", fillcolor="#e58139"] ;
734 -> 735 ;
736 [label="pendiente <= 0.223\nmse = 0.014\nsamples = 47\nvalue = 0.014", fillcolor="#fffdfc"] ;
734 -> 736 ;
737 [label="mse = 0.0\nsamples = 38\nvalue = 0.0", fillcolor="#ffffff"] ;
736 -> 737 ;
738 [label="pendiente <= 0.223\nmse = 0.062\nsamples = 9\nvalue = 0.067", fillcolor="#fdf7f2"] ;
736 -> 738 ;
739 [label="mse = 0.0\nsamples = 1\nvalue = 1.0", fillcolor="#e58139"] ;
738 -> 739 ;
740 [label="mse = 0.0\nsamples = 8\nvalue = 0.0", fillcolor="#ffffff"] ;
738 -> 740 ;
741 [label="mse = 0.0\nsamples = 1\nvalue = 1.0", fillcolor="#e58139"] ;
727 -> 741 ;
742 [label="aspecto <= -0.485\nmse = 0.007\nsamples = 338\nvalue = 0.008", fillcolor="#fffefe"] ;
726 -> 742 ;
743 [label="mse = 0.0\nsamples = 237\nvalue = 0.0", fillcolor="#ffffff"] ;
742 -> 743 ;
744 [label="aspecto <= -0.483\nmse = 0.024\nsamples = 101\nvalue = 0.025", fillcolor="#fefcfa"] ;
742 -> 744 ;
745 [label="mse = 0.0\nsamples = 1\nvalue = 1.0", fillcolor="#e58139"] ;
744 -> 745 ;
746 [label="curvatura <= 1.062\nmse = 0.018\nsamples = 100\nvalue = 0.019", fillcolor="#fffdfb"] ;
744 -> 746 ;
747 [label="pendiente <= 0.235\nmse = 0.007\nsamples = 83\nvalue = 0.008", fillcolor="#fffefe"] ;
746 -> 747 ;
748 [label="pendiente <= 0.235\nmse = 0.031\nsamples = 20\nvalue = 0.032", fillcolor="#fefbf9"] ;
747 -> 748 ;
749 [label="mse = 0.0\nsamples = 19\nvalue = 0.0", fillcolor="#ffffff"] ;
748 -> 749 ;
750 [label="mse = 0.0\nsamples = 1\nvalue = 1.0", fillcolor="#e58139"] ;
748 -> 750 ;
751 [label="mse = 0.0\nsamples = 63\nvalue = 0.0", fillcolor="#ffffff"] ;
747 -> 751 ;
752 [label="curvatura <= 1.119\nmse = 0.069\nsamples = 17\nvalue = 0.074", fillcolor="#fdf6f0"] ;
746 -> 752 ;
753 [label="mse = 0.0\nsamples = 2\nvalue = 1.0", fillcolor="#e58139"] ;
752 -> 753 ;
754 [label="mse = 0.0\nsamples = 15\nvalue = 0.0", fillcolor="#ffffff"] ;
752 -> 754 ;
755 [label="aspecto <= -0.142\nmse = 0.056\nsamples = 43\nvalue = 0.06", fillcolor="#fdf7f3"] ;
725 -> 755 ;
756 [label="mse = 0.0\nsamples = 1\nvalue = 1.0", fillcolor="#e58139"] ;
755 -> 756 ;
757 [label="pendiente <= 0.268\nmse = 0.03\nsamples = 42\nvalue = 0.031", fillcolor="#fefbf9"] ;
755 -> 757 ;
758 [label="mse = 0.0\nsamples = 39\nvalue = 0.0", fillcolor="#ffffff"] ;
757 -> 758 ;
759 [label="pendiente <= 0.269\nmse = 0.24\nsamples = 3\nvalue = 0.4", fillcolor="#f5cdb0"] ;
757 -> 759 ;
760 [label="mse = 0.0\nsamples = 1\nvalue = 1.0", fillcolor="#e58139"] ;
759 -> 760 ;
761 [label="mse = 0.0\nsamples = 2\nvalue = 0.0", fillcolor="#ffffff"] ;
759 -> 761 ;
762 [label="mse = 0.0\nsamples = 1\nvalue = 1.0", fillcolor="#e58139"] ;
716 -> 762 ;
763 [label="curvatura <= 1.189\nmse = 0.006\nsamples = 484\nvalue = 0.006", fillcolor="#fffefe"] ;
715 -> 763 ;
764 [label="aspecto <= -0.076\nmse = 0.004\nsamples = 452\nvalue = 0.004", fillcolor="#fffefe"] ;
763 -> 764 ;
765 [label="aspecto <= -0.718\nmse = 0.003\nsamples = 428\nvalue = 0.003", fillcolor="#fffffe"] ;
764 -> 765 ;
766 [label="aspecto <= -0.72\nmse = 0.007\nsamples = 166\nvalue = 0.008", fillcolor="#fffefe"] ;
765 -> 766 ;
767 [label="curvatura <= -0.897\nmse = 0.004\nsamples = 165\nvalue = 0.004", fillcolor="#fffffe"] ;
766 -> 767 ;
768 [label="curvatura <= -0.93\nmse = 0.032\nsamples = 22\nvalue = 0.033", fillcolor="#fefbf8"] ;
767 -> 768 ;
769 [label="mse = 0.0\nsamples = 21\nvalue = 0.0", fillcolor="#ffffff"] ;
768 -> 769 ;
770 [label="mse = 0.0\nsamples = 1\nvalue = 1.0", fillcolor="#e58139"] ;
768 -> 770 ;
771 [label="mse = 0.0\nsamples = 143\nvalue = 0.0", fillcolor="#ffffff"] ;
767 -> 771 ;
772 [label="mse = 0.0\nsamples = 1\nvalue = 1.0", fillcolor="#e58139"] ;
766 -> 772 ;
773 [label="mse = 0.0\nsamples = 262\nvalue = 0.0", fillcolor="#ffffff"] ;
765 -> 773 ;
774 [label="aspecto <= -0.074\nmse = 0.028\nsamples = 24\nvalue = 0.029", fillcolor="#fefbf9"] ;
764 -> 774 ;
775 [label="mse = 0.0\nsamples = 1\nvalue = 1.0", fillcolor="#e58139"] ;
774 -> 775 ;
776 [label="mse = 0.0\nsamples = 23\nvalue = 0.0", fillcolor="#ffffff"] ;
774 -> 776 ;
777 [label="curvatura <= 1.203\nmse = 0.036\nsamples = 32\nvalue = 0.037", fillcolor="#fefaf8"] ;
763 -> 777 ;
778 [label="mse = 0.0\nsamples = 1\nvalue = 1.0", fillcolor="#e58139"] ;
777 -> 778 ;
779 [label="aspecto <= -0.878\nmse = 0.019\nsamples = 31\nvalue = 0.019", fillcolor="#fffdfb"] ;
777 -> 779 ;
780 [label="aspecto <= -0.917\nmse = 0.109\nsamples = 6\nvalue = 0.125", fillcolor="#fcefe6"] ;
779 -> 780 ;
781 [label="mse = 0.0\nsamples = 5\nvalue = 0.0", fillcolor="#ffffff"] ;
780 -> 781 ;
782 [label="mse = 0.0\nsamples = 1\nvalue = 1.0", fillcolor="#e58139"] ;
780 -> 782 ;
783 [label="mse = 0.0\nsamples = 25\nvalue = 0.0", fillcolor="#ffffff"] ;
779 -> 783 ;
784 [label="pendiente <= 0.332\nmse = 0.048\nsamples = 37\nvalue = 0.05", fillcolor="#fef9f5"] ;
714 -> 784 ;
785 [label="mse = 0.0\nsamples = 1\nvalue = 1.0", fillcolor="#e58139"] ;
784 -> 785 ;
786 [label="mse = 0.0\nsamples = 36\nvalue = 0.0", fillcolor="#ffffff"] ;
784 -> 786 ;
787 [label="mse = 0.0\nsamples = 1\nvalue = 1.0", fillcolor="#e58139"] ;
713 -> 787 ;
788 [label="aspecto <= -0.838\nmse = 0.01\nsamples = 2437\nvalue = 0.01", fillcolor="#fffefd"] ;
712 -> 788 ;
789 [label="aspecto <= -0.838\nmse = 0.016\nsamples = 724\nvalue = 0.016", fillcolor="#fffdfc"] ;
788 -> 789 ;
790 [label="curvatura <= 0.417\nmse = 0.015\nsamples = 723\nvalue = 0.016", fillcolor="#fffdfc"] ;
789 -> 790 ;
791 [label="pendiente <= 0.61\nmse = 0.008\nsamples = 482\nvalue = 0.008", fillcolor="#fffefd"] ;
790 -> 791 ;
792 [label="aspecto <= -1.005\nmse = 0.006\nsamples = 454\nvalue = 0.006", fillcolor="#fffefe"] ;
791 -> 792 ;
793 [label="aspecto <= -1.005\nmse = 0.017\nsamples = 140\nvalue = 0.017", fillcolor="#fffdfc"] ;
792 -> 793 ;
794 [label="aspecto <= -1.039\nmse = 0.013\nsamples = 139\nvalue = 0.013", fillcolor="#fffdfc"] ;
793 -> 794 ;
795 [label="mse = 0.0\nsamples = 84\nvalue = 0.0", fillcolor="#ffffff"] ;
794 -> 795 ;
796 [label="aspecto <= -1.038\nmse = 0.034\nsamples = 55\nvalue = 0.035", fillcolor="#fefbf8"] ;
794 -> 796 ;
797 [label="mse = 0.0\nsamples = 1\nvalue = 1.0", fillcolor="#e58139"] ;
796 -> 797 ;
798 [label="flujo_acum <= -0.081\nmse = 0.012\nsamples = 54\nvalue = 0.012", fillcolor="#fffdfd"] ;
796 -> 798 ;
799 [label="mse = 0.0\nsamples = 51\nvalue = 0.0", fillcolor="#ffffff"] ;
798 -> 799 ;
800 [label="pendiente <= 0.445\nmse = 0.16\nsamples = 3\nvalue = 0.2", fillcolor="#fae6d7"] ;
798 -> 800 ;
801 [label="mse = 0.0\nsamples = 1\nvalue = 1.0", fillcolor="#e58139"] ;
800 -> 801 ;
802 [label="mse = 0.0\nsamples = 2\nvalue = 0.0", fillcolor="#ffffff"] ;
800 -> 802 ;
803 [label="mse = 0.0\nsamples = 1\nvalue = 1.0", fillcolor="#e58139"] ;
793 -> 803 ;
804 [label="mse = 0.0\nsamples = 314\nvalue = 0.0", fillcolor="#ffffff"] ;
792 -> 804 ;
805 [label="pendiente <= 0.61\nmse = 0.045\nsamples = 28\nvalue = 0.048", fillcolor="#fef9f6"] ;
791 -> 805 ;
806 [label="mse = 0.0\nsamples = 1\nvalue = 1.0", fillcolor="#e58139"] ;
805 -> 806 ;
807 [label="aspecto <= -0.87\nmse = 0.024\nsamples = 27\nvalue = 0.024", fillcolor="#fefcfa"] ;
805 -> 807 ;
808 [label="mse = 0.0\nsamples = 23\nvalue = 0.0", fillcolor="#ffffff"] ;
807 -> 808 ;
809 [label="aspecto <= -0.862\nmse = 0.188\nsamples = 4\nvalue = 0.25", fillcolor="#f8e0ce"] ;
807 -> 809 ;
810 [label="mse = 0.0\nsamples = 1\nvalue = 1.0", fillcolor="#e58139"] ;
809 -> 810 ;
811 [label="mse = 0.0\nsamples = 3\nvalue = 0.0", fillcolor="#ffffff"] ;
809 -> 811 ;
812 [label="curvatura <= 0.428\nmse = 0.03\nsamples = 241\nvalue = 0.03", fillcolor="#fefbf9"] ;
790 -> 812 ;
813 [label="mse = 0.0\nsamples = 1\nvalue = 1.0", fillcolor="#e58139"] ;
812 -> 813 ;
814 [label="pendiente <= 0.482\nmse = 0.022\nsamples = 240\nvalue = 0.023", fillcolor="#fefcfa"] ;
812 -> 814 ;
815 [label="flujo_acum <= -0.089\nmse = 0.006\nsamples = 114\nvalue = 0.006", fillcolor="#fffefe"] ;
814 -> 815 ;
816 [label="mse = 0.0\nsamples = 90\nvalue = 0.0", fillcolor="#ffffff"] ;
815 -> 816 ;
817 [label="curvatura <= 1.073\nmse = 0.031\nsamples = 24\nvalue = 0.032", fillcolor="#fefbf9"] ;
815 -> 817 ;
818 [label="mse = 0.0\nsamples = 17\nvalue = 0.0", fillcolor="#ffffff"] ;
817 -> 818 ;
819 [label="curvatura <= 1.125\nmse = 0.109\nsamples = 7\nvalue = 0.125", fillcolor="#fcefe6"] ;
817 -> 819 ;
820 [label="mse = 0.0\nsamples = 1\nvalue = 1.0", fillcolor="#e58139"] ;
819 -> 820 ;
821 [label="mse = 0.0\nsamples = 6\nvalue = 0.0", fillcolor="#ffffff"] ;
819 -> 821 ;
822 [label="pendiente <= 0.483\nmse = 0.035\nsamples = 126\nvalue = 0.037", fillcolor="#fefaf8"] ;
814 -> 822 ;
823 [label="mse = 0.0\nsamples = 1\nvalue = 1.0", fillcolor="#e58139"] ;
822 -> 823 ;
824 [label="curvatura <= 1.455\nmse = 0.023\nsamples = 125\nvalue = 0.023", fillcolor="#fefcfa"] ;
822 -> 824 ;
825 [label="pendiente <= 0.517\nmse = 0.012\nsamples = 100\nvalue = 0.012", fillcolor="#fffefd"] ;
824 -> 825 ;
826 [label="pendiente <= 0.515\nmse = 0.049\nsamples = 22\nvalue = 0.051", fillcolor="#fef9f5"] ;
825 -> 826 ;
827 [label="mse = 0.0\nsamples = 21\nvalue = 0.0", fillcolor="#ffffff"] ;
826 -> 827 ;
828 [label="mse = 0.0\nsamples = 1\nvalue = 1.0", fillcolor="#e58139"] ;
826 -> 828 ;
829 [label="mse = 0.0\nsamples = 78\nvalue = 0.0", fillcolor="#ffffff"] ;
825 -> 829 ;
830 [label="curvatura <= 1.497\nmse = 0.064\nsamples = 25\nvalue = 0.068", fillcolor="#fdf6f2"] ;
824 -> 830 ;
831 [label="mse = 0.0\nsamples = 1\nvalue = 1.0", fillcolor="#e58139"] ;
830 -> 831 ;
832 [label="mse = 0.0\nsamples = 24\nvalue = 0.0", fillcolor="#ffffff"] ;
830 -> 832 ;
833 [label="mse = 0.0\nsamples = 1\nvalue = 1.0", fillcolor="#e58139"] ;
789 -> 833 ;
834 [label="pendiente <= 0.364\nmse = 0.007\nsamples = 1713\nvalue = 0.007", fillcolor="#fffefe"] ;
788 -> 834 ;
835 [label="pendiente <= 0.364\nmse = 0.017\nsamples = 162\nvalue = 0.017", fillcolor="#fffdfc"] ;
834 -> 835 ;
836 [label="aspecto <= -0.701\nmse = 0.007\nsamples = 161\nvalue = 0.007", fillcolor="#fffefe"] ;
835 -> 836 ;
837 [label="aspecto <= -0.712\nmse = 0.028\nsamples = 37\nvalue = 0.029", fillcolor="#fefbf9"] ;
836 -> 837 ;
838 [label="mse = 0.0\nsamples = 36\nvalue = 0.0", fillcolor="#ffffff"] ;
837 -> 838 ;
839 [label="mse = 0.0\nsamples = 1\nvalue = 1.0", fillcolor="#e58139"] ;
837 -> 839 ;
840 [label="mse = 0.0\nsamples = 124\nvalue = 0.0", fillcolor="#ffffff"] ;
836 -> 840 ;
841 [label="mse = 0.0\nsamples = 1\nvalue = 1.0", fillcolor="#e58139"] ;
835 -> 841 ;
842 [label="pendiente <= 0.408\nmse = 0.006\nsamples = 1551\nvalue = 0.006", fillcolor="#fffefe"] ;
834 -> 842 ;
843 [label="mse = 0.0\nsamples = 242\nvalue = 0.0", fillcolor="#ffffff"] ;
842 -> 843 ;
844 [label="pendiente <= 0.408\nmse = 0.007\nsamples = 1309\nvalue = 0.007", fillcolor="#fffefe"] ;
842 -> 844 ;
845 [label="mse = 0.0\nsamples = 1\nvalue = 1.0", fillcolor="#e58139"] ;
844 -> 845 ;
846 [label="pendiente <= 0.416\nmse = 0.007\nsamples = 1308\nvalue = 0.007", fillcolor="#fffefe"] ;
844 -> 846 ;
847 [label="pendiente <= 0.415\nmse = 0.034\nsamples = 36\nvalue = 0.036", fillcolor="#fefaf8"] ;
846 -> 847 ;
848 [label="curvatura <= -0.996\nmse = 0.018\nsamples = 35\nvalue = 0.018", fillcolor="#fffdfb"] ;
847 -> 848 ;
849 [label="curvatura <= -1.099\nmse = 0.16\nsamples = 5\nvalue = 0.2", fillcolor="#fae6d7"] ;
848 -> 849 ;
850 [label="mse = 0.0\nsamples = 4\nvalue = 0.0", fillcolor="#ffffff"] ;
849 -> 850 ;
851 [label="mse = 0.0\nsamples = 1\nvalue = 1.0", fillcolor="#e58139"] ;
849 -> 851 ;
852 [label="mse = 0.0\nsamples = 30\nvalue = 0.0", fillcolor="#ffffff"] ;
848 -> 852 ;
853 [label="mse = 0.0\nsamples = 1\nvalue = 1.0", fillcolor="#e58139"] ;
847 -> 853 ;
854 [label="pendiente <= 0.455\nmse = 0.006\nsamples = 1272\nvalue = 0.006", fillcolor="#fffefe"] ;
846 -> 854 ;
855 [label="mse = 0.0\nsamples = 268\nvalue = 0.0", fillcolor="#ffffff"] ;
854 -> 855 ;
856 [label="pendiente <= 0.455\nmse = 0.008\nsamples = 1004\nvalue = 0.008", fillcolor="#fffefd"] ;
854 -> 856 ;
857 [label="mse = 0.0\nsamples = 1\nvalue = 1.0", fillcolor="#e58139"] ;
856 -> 857 ;
858 [label="pendiente <= 0.48\nmse = 0.007\nsamples = 1003\nvalue = 0.007", fillcolor="#fffefe"] ;
856 -> 858 ;
859 [label="pendiente <= 0.479\nmse = 0.017\nsamples = 150\nvalue = 0.017", fillcolor="#fffdfc"] ;
858 -> 859 ;
860 [label="aspecto <= -0.739\nmse = 0.013\nsamples = 149\nvalue = 0.013", fillcolor="#fffdfc"] ;
859 -> 860 ;
861 [label="aspecto <= -0.74\nmse = 0.071\nsamples = 16\nvalue = 0.077", fillcolor="#fdf5f0"] ;
860 -> 861 ;
862 [label="mse = 0.0\nsamples = 15\nvalue = 0.0", fillcolor="#ffffff"] ;
861 -> 862 ;
863 [label="mse = 0.0\nsamples = 1\nvalue = 1.0", fillcolor="#e58139"] ;
861 -> 863 ;
864 [label="aspecto <= -0.006\nmse = 0.005\nsamples = 133\nvalue = 0.005", fillcolor="#fffefe"] ;
860 -> 864 ;
865 [label="mse = 0.0\nsamples = 123\nvalue = 0.0", fillcolor="#ffffff"] ;
864 -> 865 ;
866 [label="aspecto <= 0.024\nmse = 0.076\nsamples = 10\nvalue = 0.083", fillcolor="#fdf4ee"] ;
864 -> 866 ;
867 [label="mse = 0.0\nsamples = 1\nvalue = 1.0", fillcolor="#e58139"] ;
866 -> 867 ;
868 [label="mse = 0.0\nsamples = 9\nvalue = 0.0", fillcolor="#ffffff"] ;
866 -> 868 ;
869 [label="mse = 0.0\nsamples = 1\nvalue = 1.0", fillcolor="#e58139"] ;
859 -> 869 ;
870 [label="aspecto <= -0.559\nmse = 0.005\nsamples = 853\nvalue = 0.005", fillcolor="#fffefe"] ;
858 -> 870 ;
871 [label="mse = 0.0\nsamples = 348\nvalue = 0.0", fillcolor="#ffffff"] ;
870 -> 871 ;
872 [label="aspecto <= -0.558\nmse = 0.009\nsamples = 505\nvalue = 0.009", fillcolor="#fffefd"] ;
870 -> 872 ;
873 [label="mse = 0.0\nsamples = 1\nvalue = 1.0", fillcolor="#e58139"] ;
872 -> 873 ;
874 [label="aspecto <= -0.552\nmse = 0.006\nsamples = 504\nvalue = 0.006", fillcolor="#fffefe"] ;
872 -> 874 ;
875 [label="aspecto <= -0.554\nmse = 0.083\nsamples = 8\nvalue = 0.091", fillcolor="#fdf4ed"] ;
874 -> 875 ;
876 [label="mse = 0.0\nsamples = 7\nvalue = 0.0", fillcolor="#ffffff"] ;
875 -> 876 ;
877 [label="mse = 0.0\nsamples = 1\nvalue = 1.0", fillcolor="#e58139"] ;
875 -> 877 ;
878 [label="curvatura <= -1.684\nmse = 0.005\nsamples = 496\nvalue = 0.005", fillcolor="#fffefe"] ;
874 -> 878 ;
879 [label="curvatura <= -1.791\nmse = 0.052\nsamples = 15\nvalue = 0.056", fillcolor="#fef8f4"] ;
878 -> 879 ;
880 [label="mse = 0.0\nsamples = 14\nvalue = 0.0", fillcolor="#ffffff"] ;
879 -> 880 ;
881 [label="mse = 0.0\nsamples = 1\nvalue = 1.0", fillcolor="#e58139"] ;
879 -> 881 ;
882 [label="aspecto <= -0.54\nmse = 0.004\nsamples = 481\nvalue = 0.004", fillcolor="#fffffe"] ;
878 -> 882 ;
883 [label="aspecto <= -0.541\nmse = 0.031\nsamples = 19\nvalue = 0.032", fillcolor="#fefbf9"] ;
882 -> 883 ;
884 [label="mse = 0.0\nsamples = 18\nvalue = 0.0", fillcolor="#ffffff"] ;
883 -> 884 ;
885 [label="mse = 0.0\nsamples = 1\nvalue = 1.0", fillcolor="#e58139"] ;
883 -> 885 ;
886 [label="pendiente <= 0.51\nmse = 0.003\nsamples = 462\nvalue = 0.003", fillcolor="#fffffe"] ;
882 -> 886 ;
887 [label="pendiente <= 0.509\nmse = 0.011\nsamples = 106\nvalue = 0.011", fillcolor="#fffefd"] ;
886 -> 887 ;
888 [label="pendiente <= 0.489\nmse = 0.006\nsamples = 105\nvalue = 0.006", fillcolor="#fffefe"] ;
887 -> 888 ;
889 [label="pendiente <= 0.489\nmse = 0.016\nsamples = 41\nvalue = 0.016", fillcolor="#fffdfc"] ;
888 -> 889 ;
890 [label="mse = 0.0\nsamples = 40\nvalue = 0.0", fillcolor="#ffffff"] ;
889 -> 890 ;
891 [label="mse = 0.0\nsamples = 1\nvalue = 1.0", fillcolor="#e58139"] ;
889 -> 891 ;
892 [label="mse = 0.0\nsamples = 64\nvalue = 0.0", fillcolor="#ffffff"] ;
888 -> 892 ;
893 [label="mse = 0.0\nsamples = 1\nvalue = 1.0", fillcolor="#e58139"] ;
887 -> 893 ;
894 [label="mse = 0.0\nsamples = 356\nvalue = 0.0", fillcolor="#ffffff"] ;
886 -> 894 ;
895 [label="aspecto <= 0.063\nmse = 0.019\nsamples = 5390\nvalue = 0.019", fillcolor="#fefdfb"] ;
663 -> 895 ;
896 [label="mse = 0.0\nsamples = 1\nvalue = 1.0", fillcolor="#e58139"] ;
895 -> 896 ;
897 [label="aspecto <= 0.169\nmse = 0.019\nsamples = 5389\nvalue = 0.019", fillcolor="#fffdfb"] ;
895 -> 897 ;
898 [label="aspecto <= 0.167\nmse = 0.048\nsamples = 169\nvalue = 0.051", fillcolor="#fef9f5"] ;
897 -> 898 ;
899 [label="aspecto <= 0.157\nmse = 0.036\nsamples = 166\nvalue = 0.037", fillcolor="#fefaf8"] ;
898 -> 899 ;
900 [label="pendiente <= 0.594\nmse = 0.02\nsamples = 148\nvalue = 0.021", fillcolor="#fefcfb"] ;
899 -> 900 ;
901 [label="pendiente <= 0.382\nmse = 0.013\nsamples = 144\nvalue = 0.013", fillcolor="#fffdfc"] ;
900 -> 901 ;
902 [label="pendiente <= 0.379\nmse = 0.037\nsamples = 52\nvalue = 0.039", fillcolor="#fefaf7"] ;
901 -> 902 ;
903 [label="pendiente <= 0.319\nmse = 0.013\nsamples = 51\nvalue = 0.013", fillcolor="#fffdfc"] ;
902 -> 903 ;
904 [label="mse = 0.0\nsamples = 33\nvalue = 0.0", fillcolor="#ffffff"] ;
903 -> 904 ;
905 [label="pendiente <= 0.323\nmse = 0.04\nsamples = 18\nvalue = 0.042", fillcolor="#fefaf7"] ;
903 -> 905 ;
906 [label="mse = 0.0\nsamples = 1\nvalue = 1.0", fillcolor="#e58139"] ;
905 -> 906 ;
907 [label="mse = 0.0\nsamples = 17\nvalue = 0.0", fillcolor="#ffffff"] ;
905 -> 907 ;
908 [label="mse = 0.0\nsamples = 1\nvalue = 1.0", fillcolor="#e58139"] ;
902 -> 908 ;
909 [label="mse = 0.0\nsamples = 92\nvalue = 0.0", fillcolor="#ffffff"] ;
901 -> 909 ;
910 [label="curvatura <= -0.371\nmse = 0.24\nsamples = 4\nvalue = 0.4", fillcolor="#f5cdb0"] ;
900 -> 910 ;
911 [label="mse = 0.0\nsamples = 1\nvalue = 1.0", fillcolor="#e58139"] ;
910 -> 911 ;
912 [label="mse = 0.0\nsamples = 3\nvalue = 0.0", fillcolor="#ffffff"] ;
910 -> 912 ;
913 [label="aspecto <= 0.161\nmse = 0.135\nsamples = 18\nvalue = 0.161", fillcolor="#fbebdf"] ;
899 -> 913 ;
914 [label="curvatura <= 0.527\nmse = 0.243\nsamples = 6\nvalue = 0.417", fillcolor="#f4caac"] ;
913 -> 914 ;
915 [label="curvatura <= -0.317\nmse = 0.109\nsamples = 5\nvalue = 0.125", fillcolor="#fcefe6"] ;
914 -> 915 ;
916 [label="mse = 0.0\nsamples = 1\nvalue = 1.0", fillcolor="#e58139"] ;
915 -> 916 ;
917 [label="mse = 0.0\nsamples = 4\nvalue = 0.0", fillcolor="#ffffff"] ;
915 -> 917 ;
918 [label="mse = 0.0\nsamples = 1\nvalue = 1.0", fillcolor="#e58139"] ;
914 -> 918 ;
919 [label="mse = 0.0\nsamples = 12\nvalue = 0.0", fillcolor="#ffffff"] ;
913 -> 919 ;
920 [label="curvatura <= -0.242\nmse = 0.16\nsamples = 3\nvalue = 0.8", fillcolor="#ea9a61"] ;
898 -> 920 ;
921 [label="mse = 0.0\nsamples = 2\nvalue = 1.0", fillcolor="#e58139"] ;
920 -> 921 ;
922 [label="mse = 0.0\nsamples = 1\nvalue = 0.0", fillcolor="#ffffff"] ;
920 -> 922 ;
923 [label="curvatura <= 0.742\nmse = 0.018\nsamples = 5220\nvalue = 0.018", fillcolor="#fffdfb"] ;
897 -> 923 ;
924 [label="aspecto <= 1.065\nmse = 0.015\nsamples = 4272\nvalue = 0.016", fillcolor="#fffdfc"] ;
923 -> 924 ;
925 [label="pendiente <= 0.182\nmse = 0.011\nsamples = 2376\nvalue = 0.011", fillcolor="#fffefd"] ;
924 -> 925 ;
926 [label="curvatura <= 0.515\nmse = 0.188\nsamples = 2\nvalue = 0.25", fillcolor="#f8e0ce"] ;
925 -> 926 ;
927 [label="mse = 0.0\nsamples = 1\nvalue = 1.0", fillcolor="#e58139"] ;
926 -> 927 ;
928 [label="mse = 0.0\nsamples = 1\nvalue = 0.0", fillcolor="#ffffff"] ;
926 -> 928 ;
929 [label="flujo_acum <= -0.089\nmse = 0.011\nsamples = 2374\nvalue = 0.011", fillcolor="#fffefd"] ;
925 -> 929 ;
930 [label="aspecto <= 1.008\nmse = 0.015\nsamples = 1463\nvalue = 0.015", fillcolor="#fffdfc"] ;
929 -> 930 ;
931 [label="aspecto <= 1.008\nmse = 0.017\nsamples = 1306\nvalue = 0.017", fillcolor="#fffdfc"] ;
930 -> 931 ;
932 [label="pendiente <= 0.284\nmse = 0.016\nsamples = 1305\nvalue = 0.016", fillcolor="#fffdfc"] ;
931 -> 932 ;
933 [label="pendiente <= 0.283\nmse = 0.026\nsamples = 308\nvalue = 0.027", fillcolor="#fefcfa"] ;
932 -> 933 ;
934 [label="aspecto <= 0.936\nmse = 0.024\nsamples = 307\nvalue = 0.025", fillcolor="#fefcfa"] ;
933 -> 934 ;
935 [label="pendiente <= 0.204\nmse = 0.017\nsamples = 263\nvalue = 0.017", fillcolor="#fffdfc"] ;
934 -> 935 ;
936 [label="pendiente <= 0.203\nmse = 0.043\nsamples = 45\nvalue = 0.045", fillcolor="#fef9f6"] ;
935 -> 936 ;
937 [label="pendiente <= 0.188\nmse = 0.015\nsamples = 44\nvalue = 0.016", fillcolor="#fffdfc"] ;
936 -> 937 ;
938 [label="pendiente <= 0.188\nmse = 0.04\nsamples = 17\nvalue = 0.042", fillcolor="#fefaf7"] ;
937 -> 938 ;
939 [label="mse = 0.0\nsamples = 16\nvalue = 0.0", fillcolor="#ffffff"] ;
938 -> 939 ;
940 [label="mse = 0.0\nsamples = 1\nvalue = 1.0", fillcolor="#e58139"] ;
938 -> 940 ;
941 [label="mse = 0.0\nsamples = 27\nvalue = 0.0", fillcolor="#ffffff"] ;
937 -> 941 ;
942 [label="mse = 0.0\nsamples = 1\nvalue = 1.0", fillcolor="#e58139"] ;
936 -> 942 ;
943 [label="curvatura <= 0.463\nmse = 0.012\nsamples = 218\nvalue = 0.012", fillcolor="#fffdfd"] ;
935 -> 943 ;
944 [label="pendiente <= 0.273\nmse = 0.007\nsamples = 180\nvalue = 0.007", fillcolor="#fffefe"] ;
943 -> 944 ;
945 [label="aspecto <= 0.771\nmse = 0.004\nsamples = 157\nvalue = 0.004", fillcolor="#fffefe"] ;
944 -> 945 ;
946 [label="mse = 0.0\nsamples = 101\nvalue = 0.0", fillcolor="#ffffff"] ;
945 -> 946 ;
947 [label="aspecto <= 0.779\nmse = 0.011\nsamples = 56\nvalue = 0.011", fillcolor="#fffefd"] ;
945 -> 947 ;
948 [label="mse = 0.0\nsamples = 1\nvalue = 1.0", fillcolor="#e58139"] ;
947 -> 948 ;
949 [label="mse = 0.0\nsamples = 55\nvalue = 0.0", fillcolor="#ffffff"] ;
947 -> 949 ;
950 [label="pendiente <= 0.273\nmse = 0.028\nsamples = 23\nvalue = 0.029", fillcolor="#fefbf9"] ;
944 -> 950 ;
951 [label="mse = 0.0\nsamples = 1\nvalue = 1.0", fillcolor="#e58139"] ;
950 -> 951 ;
952 [label="mse = 0.0\nsamples = 22\nvalue = 0.0", fillcolor="#ffffff"] ;
950 -> 952 ;
953 [label="curvatura <= 0.47\nmse = 0.036\nsamples = 38\nvalue = 0.037", fillcolor="#fefaf8"] ;
943 -> 953 ;
954 [label="mse = 0.0\nsamples = 1\nvalue = 1.0", fillcolor="#e58139"] ;
953 -> 954 ;
955 [label="aspecto <= 0.542\nmse = 0.019\nsamples = 37\nvalue = 0.019", fillcolor="#fffdfb"] ;
953 -> 955 ;
956 [label="aspecto <= 0.494\nmse = 0.066\nsamples = 10\nvalue = 0.071", fillcolor="#fdf6f1"] ;
955 -> 956 ;
957 [label="mse = 0.0\nsamples = 9\nvalue = 0.0", fillcolor="#ffffff"] ;
956 -> 957 ;
958 [label="mse = 0.0\nsamples = 1\nvalue = 1.0", fillcolor="#e58139"] ;
956 -> 958 ;
959 [label="mse = 0.0\nsamples = 27\nvalue = 0.0", fillcolor="#ffffff"] ;
955 -> 959 ;
960 [label="aspecto <= 0.937\nmse = 0.058\nsamples = 44\nvalue = 0.062", fillcolor="#fdf7f3"] ;
934 -> 960 ;
961 [label="mse = 0.0\nsamples = 1\nvalue = 1.0", fillcolor="#e58139"] ;
960 -> 961 ;
962 [label="pendiente <= 0.277\nmse = 0.025\nsamples = 43\nvalue = 0.026", fillcolor="#fefcfa"] ;
960 -> 962 ;
963 [label="aspecto <= 1.0\nmse = 0.013\nsamples = 40\nvalue = 0.014", fillcolor="#fffdfc"] ;
962 -> 963 ;
964 [label="mse = 0.0\nsamples = 32\nvalue = 0.0", fillcolor="#ffffff"] ;
963 -> 964 ;
965 [label="flujo_acum <= -0.09\nmse = 0.066\nsamples = 8\nvalue = 0.071", fillcolor="#fdf6f1"] ;
963 -> 965 ;
966 [label="mse = 0.0\nsamples = 1\nvalue = 1.0", fillcolor="#e58139"] ;
965 -> 966 ;
967 [label="mse = 0.0\nsamples = 7\nvalue = 0.0", fillcolor="#ffffff"] ;
965 -> 967 ;
968 [label="pendiente <= 0.278\nmse = 0.188\nsamples = 3\nvalue = 0.25", fillcolor="#f8e0ce"] ;
962 -> 968 ;
969 [label="mse = 0.0\nsamples = 1\nvalue = 1.0", fillcolor="#e58139"] ;
968 -> 969 ;
970 [label="mse = 0.0\nsamples = 2\nvalue = 0.0", fillcolor="#ffffff"] ;
968 -> 970 ;
971 [label="mse = 0.0\nsamples = 1\nvalue = 1.0", fillcolor="#e58139"] ;
933 -> 971 ;
972 [label="aspecto <= 1.006\nmse = 0.013\nsamples = 997\nvalue = 0.013", fillcolor="#fffdfc"] ;
932 -> 972 ;
973 [label="curvatura <= -0.81\nmse = 0.012\nsamples = 992\nvalue = 0.012", fillcolor="#fffdfd"] ;
972 -> 973 ;
974 [label="curvatura <= -0.82\nmse = 0.03\nsamples = 105\nvalue = 0.031", fillcolor="#fefbf9"] ;
973 -> 974 ;
975 [label="pendiente <= 0.328\nmse = 0.019\nsamples = 104\nvalue = 0.019", fillcolor="#fffdfb"] ;
974 -> 975 ;
976 [label="pendiente <= 0.32\nmse = 0.09\nsamples = 7\nvalue = 0.1", fillcolor="#fcf2eb"] ;
975 -> 976 ;
977 [label="mse = 0.0\nsamples = 6\nvalue = 0.0", fillcolor="#ffffff"] ;
976 -> 977 ;
978 [label="mse = 0.0\nsamples = 1\nvalue = 1.0", fillcolor="#e58139"] ;
976 -> 978 ;
979 [label="pendiente <= 0.581\nmse = 0.013\nsamples = 97\nvalue = 0.014", fillcolor="#fffdfc"] ;
975 -> 979 ;
980 [label="flujo_acum <= -0.09\nmse = 0.008\nsamples = 83\nvalue = 0.008", fillcolor="#fffefd"] ;
979 -> 980 ;
981 [label="aspecto <= 0.55\nmse = 0.026\nsamples = 25\nvalue = 0.027", fillcolor="#fefcfa"] ;
980 -> 981 ;
982 [label="aspecto <= 0.527\nmse = 0.071\nsamples = 11\nvalue = 0.077", fillcolor="#fdf5f0"] ;
981 -> 982 ;
983 [label="mse = 0.0\nsamples = 10\nvalue = 0.0", fillcolor="#ffffff"] ;
982 -> 983 ;
984 [label="mse = 0.0\nsamples = 1\nvalue = 1.0", fillcolor="#e58139"] ;
982 -> 984 ;
985 [label="mse = 0.0\nsamples = 14\nvalue = 0.0", fillcolor="#ffffff"] ;
981 -> 985 ;
986 [label="mse = 0.0\nsamples = 58\nvalue = 0.0", fillcolor="#ffffff"] ;
980 -> 986 ;
987 [label="pendiente <= 0.586\nmse = 0.05\nsamples = 14\nvalue = 0.053", fillcolor="#fef8f5"] ;
979 -> 987 ;
988 [label="mse = 0.0\nsamples = 1\nvalue = 1.0", fillcolor="#e58139"] ;
987 -> 988 ;
989 [label="mse = 0.0\nsamples = 13\nvalue = 0.0", fillcolor="#ffffff"] ;
987 -> 989 ;
990 [label="mse = 0.0\nsamples = 1\nvalue = 1.0", fillcolor="#e58139"] ;
974 -> 990 ;
991 [label="curvatura <= 0.43\nmse = 0.01\nsamples = 887\nvalue = 0.01", fillcolor="#fffefd"] ;
973 -> 991 ;
992 [label="aspecto <= 0.279\nmse = 0.007\nsamples = 679\nvalue = 0.007", fillcolor="#fffefe"] ;
991 -> 992 ;
993 [label="aspecto <= 0.277\nmse = 0.02\nsamples = 61\nvalue = 0.021", fillcolor="#fefcfb"] ;
992 -> 993 ;
994 [label="flujo_acum <= -0.09\nmse = 0.01\nsamples = 60\nvalue = 0.011", fillcolor="#fffefd"] ;
993 -> 994 ;
995 [label="pendiente <= 0.571\nmse = 0.048\nsamples = 11\nvalue = 0.05", fillcolor="#fef9f5"] ;
994 -> 995 ;
996 [label="mse = 0.0\nsamples = 8\nvalue = 0.0", fillcolor="#ffffff"] ;
995 -> 996 ;
997 [label="aspecto <= 0.232\nmse = 0.188\nsamples = 3\nvalue = 0.25", fillcolor="#f8e0ce"] ;
995 -> 997 ;
998 [label="mse = 0.0\nsamples = 2\nvalue = 0.0", fillcolor="#ffffff"] ;
997 -> 998 ;
999 [label="mse = 0.0\nsamples = 1\nvalue = 1.0", fillcolor="#e58139"] ;
997 -> 999 ;
1000 [label="mse = 0.0\nsamples = 49\nvalue = 0.0", fillcolor="#ffffff"] ;
994 -> 1000 ;
1001 [label="mse = 0.0\nsamples = 1\nvalue = 1.0", fillcolor="#e58139"] ;
993 -> 1001 ;
1002 [label="curvatura <= 0.075\nmse = 0.005\nsamples = 618\nvalue = 0.005", fillcolor="#fffefe"] ;
992 -> 1002 ;
1003 [label="curvatura <= -0.625\nmse = 0.002\nsamples = 352\nvalue = 0.002", fillcolor="#ffffff"] ;
1002 -> 1003 ;
1004 [label="curvatura <= -0.629\nmse = 0.019\nsamples = 34\nvalue = 0.02", fillcolor="#fefdfb"] ;
1003 -> 1004 ;
1005 [label="mse = 0.0\nsamples = 33\nvalue = 0.0", fillcolor="#ffffff"] ;
1004 -> 1005 ;
1006 [label="mse = 0.0\nsamples = 1\nvalue = 1.0", fillcolor="#e58139"] ;
1004 -> 1006 ;
1007 [label="mse = 0.0\nsamples = 318\nvalue = 0.0", fillcolor="#ffffff"] ;
1003 -> 1007 ;
1008 [label="curvatura <= 0.077\nmse = 0.009\nsamples = 266\nvalue = 0.009", fillcolor="#fffefd"] ;
1002 -> 1008 ;
1009 [label="mse = 0.0\nsamples = 1\nvalue = 1.0", fillcolor="#e58139"] ;
1008 -> 1009 ;
1010 [label="aspecto <= 0.698\nmse = 0.007\nsamples = 265\nvalue = 0.007", fillcolor="#fffefe"] ;
1008 -> 1010 ;
1011 [label="aspecto <= 0.692\nmse = 0.019\nsamples = 93\nvalue = 0.019", fillcolor="#fffdfb"] ;
1010 -> 1011 ;
